%YAML:1.0
my_svm: !!opencv-ml-svm
   svm_type: C_SVC
   kernel: { type:LINEAR }
   C: 1.
   term_criteria: { epsilon:2.2204460492503131e-16, iterations:100 }
   var_all: 128
   var_count: 128
   class_count: 14
   class_labels: !!opencv-matrix
      rows: 1
      cols: 14
      dt: i
      data: [ 1, 2, 3, 4, 5, 6, 7, 8, 9, 10, 11, 12, 13, 14 ]
   sv_total: 91
   support_vectors:
      - [ -1.00266108e-04, -3.23166052e-04, -8.23619682e-03,
          4.74936701e-03, 2.96005700e-03, -5.86304441e-03,
          -1.40301228e-04, -3.28687420e-05, -3.52380594e-04,
          -2.43693241e-03, 3.39207030e-03, 1.05142302e-03,
          -2.64983880e-03, -6.69926917e-03, -1.34651922e-03,
          2.06443574e-03, -1.09457865e-03, -6.44157524e-04,
          2.60860939e-03, -3.89769138e-03, 2.08463124e-03,
          4.09355247e-03, 2.69537582e-03, 1.28397369e-03, 1.95623579e-04,
          -2.08393511e-04, 4.91288607e-04, 1.36152795e-03,
          1.92526833e-03, 1.84934016e-03, 7.93479441e-04,
          -7.00087403e-04, -2.02664617e-03, -3.19672003e-03,
          -8.27252865e-04, 1.57858850e-03, -1.52818125e-03,
          1.38185045e-03, 4.40060132e-04, 2.00763883e-04, 5.36358263e-03,
          7.70420954e-03, 8.91899597e-03, 2.39615771e-03,
          -4.71626117e-04, 1.30595849e-03, 1.05085410e-03,
          6.14781212e-03, -3.95871606e-03, 1.11606489e-04,
          1.61615561e-03, -2.65468797e-03, 3.22324457e-04,
          1.00841827e-03, 6.88702287e-03, 4.17503947e-03, 9.16085206e-04,
          1.25694950e-03, -4.12324269e-04, 3.50730657e-03,
          2.83855968e-03, 2.85178889e-03, 2.53778719e-03, 4.74797515e-03,
          -2.45719706e-03, 1.44584206e-04, 1.53703056e-03,
          -3.24126682e-03, 1.30521564e-03, 2.66624033e-03,
          -3.32803791e-03, 3.76163720e-04, 4.19943966e-03,
          2.31625163e-03, 8.03242554e-04, -1.05578115e-03,
          3.22783296e-03, 4.97951731e-03, 4.74234531e-03, 5.71038248e-03,
          4.36396251e-04, 4.16722707e-03, 8.84557236e-03, 4.30855341e-03,
          1.88909133e-03, 6.46929536e-03, 5.39007410e-03,
          -3.26756900e-03, 2.36045895e-03, -4.11900645e-03,
          2.77209940e-04, 3.24505032e-03, -7.86751101e-04,
          -5.19376202e-03, -1.98040553e-03, 3.76777048e-03,
          1.48281117e-03, 4.68125829e-04, 7.93788204e-05,
          -5.13290463e-04, 4.30252170e-03, 2.51984224e-03,
          4.63176519e-04, 1.11042382e-03, 2.59053940e-03, 4.24939767e-03,
          1.37465051e-03, -2.08171061e-03, -2.67109834e-04,
          -3.11267609e-03, 9.46201326e-04, 2.78701744e-04,
          -2.01118109e-03, 2.31780624e-03, 4.33695503e-03,
          1.59114297e-03, 1.05694390e-03, -1.60872575e-03,
          3.50326649e-04, 2.89642997e-03, -1.03078689e-03,
          3.91754700e-04, 2.65988195e-03, 1.38800440e-03, 7.59559160e-04,
          -1.78552151e-03, 8.89229414e-04, 3.18093318e-03 ]
      - [ -1.37322315e-03, -3.86970630e-03, -4.38940478e-03,
          1.00240856e-03, -9.56547738e-05, -1.78729056e-03,
          5.95516503e-05, -2.99040603e-05, -1.63727312e-03,
          -5.62890316e-04, 4.80828603e-04, 2.93598860e-04,
          2.53244326e-03, 7.31719134e-04, 4.94107080e-04, 1.86495576e-03,
          4.45460062e-03, 1.40016130e-03, 4.16617421e-03, 1.56138849e-04,
          3.52643518e-04, 1.88081921e-03, 1.56902836e-03, 1.57284469e-03,
          1.50656130e-03, 2.01818324e-03, 2.56109313e-04,
          -2.27304349e-06, 1.69857114e-04, 4.15705057e-04,
          3.30303155e-04, 5.81775035e-04, -1.71410106e-03,
          -1.90879940e-03, 2.22524162e-03, 4.01823642e-03,
          -2.44323723e-03, 4.58198460e-03, -5.54757600e-04,
          4.51901433e-04, 8.76617269e-04, 6.65006740e-03, 4.95892856e-03,
          3.27539002e-03, -1.40790245e-03, 4.61201603e-03,
          4.26512305e-03, 7.41092023e-03, -1.90618611e-03,
          -2.99611920e-03, 1.11285935e-03, 1.12561777e-03,
          -3.81375954e-04, 4.61240299e-03, 7.29471352e-03,
          6.58308854e-04, 9.52680130e-04, 2.71921745e-03, 7.39821699e-04,
          5.57874155e-04, 6.07437338e-04, 7.30967615e-04, 3.75833624e-04,
          1.12514885e-03, -1.28314679e-03, 3.42650717e-04,
          1.15520344e-03, 2.58999411e-03, -3.71456146e-04,
          4.41276841e-03, -8.53899808e-04, 3.89617373e-04,
          1.03663653e-03, 5.60469460e-03, 3.67020047e-03, 2.64415517e-03,
          -6.06207876e-04, 4.26110439e-03, 2.44847313e-03,
          3.56518128e-03, -2.81280442e-03, 2.19409098e-03,
          5.70410350e-03, 2.78437481e-04, 2.52835662e-03, 3.83787486e-03,
          -4.44141770e-04, -1.00718031e-03, 3.06320935e-03,
          2.06056997e-04, 8.21209862e-04, 1.22332782e-03, 8.15876701e-04,
          1.32773630e-03, 1.16247847e-03, 2.38687964e-03, 1.48764183e-03,
          1.69586070e-04, 1.65933525e-04, 1.40689919e-03, 1.46311751e-04,
          -6.65027255e-05, -2.39208480e-03, -1.19693950e-03,
          2.32011150e-03, 1.93353998e-03, 1.70891546e-03, 8.72394477e-04,
          3.82015831e-04, 1.69477193e-03, 2.11008498e-03,
          -1.68929272e-03, -5.91702876e-04, -6.88589760e-04,
          2.72675394e-03, 1.45716092e-03, 6.61410886e-05, 4.14198468e-04,
          2.44466262e-03, 2.65187398e-03, 2.48655840e-03,
          -2.09023201e-05, 2.56203552e-04, 2.42487789e-04,
          9.31481700e-05, 2.39447865e-04, 2.16029980e-03, 4.22174158e-03 ]
      - [ -1.12467838e-04, -1.22609735e-03, -4.08872031e-03,
          -2.02564150e-03, 1.66606251e-03, -2.27667697e-04,
          -2.15306805e-04, -9.10775343e-05, 3.71087599e-03,
          -1.91271596e-03, 4.73983353e-03, 4.60676337e-03,
          1.56467815e-03, -6.13525190e-05, 1.06148457e-03,
          3.22900340e-03, 3.64038441e-03, 2.69745640e-03, 1.68357871e-03,
          -1.97149185e-03, 8.18449713e-04, 8.13325692e-04,
          5.57102077e-03, 5.91878314e-03, 2.65002437e-03, 1.73644954e-03,
          2.71922705e-04, 1.84164359e-03, 4.22562612e-03, 4.44785226e-04,
          5.40745095e-04, 1.78410637e-03, -2.38253429e-04,
          -1.06059702e-03, -1.66460825e-03, -5.86755887e-05,
          2.98503553e-03, -3.37394973e-04, -6.87699183e-04,
          -4.32799561e-06, 6.18037442e-03, 5.64825442e-03,
          1.57501036e-03, 4.62730927e-03, -9.72252048e-04,
          1.66573771e-03, 3.78003181e-03, 6.70619076e-03,
          -3.08590545e-03, -2.44021812e-03, 1.62074552e-03,
          1.63821285e-04, -4.81958641e-03, 9.61411351e-05,
          7.52576953e-03, 3.24295252e-03, 2.56497343e-03,
          -7.34451460e-04, -1.83354525e-04, -1.27971021e-03,
          1.42891612e-03, 5.75111306e-04, -1.29208915e-04,
          3.24779097e-03, -1.00556179e-03, -5.79320593e-04,
          -2.88924808e-03, -2.98384170e-04, 2.56961305e-03,
          -1.30836433e-03, -3.39465472e-03, -2.17318954e-03,
          1.94794367e-04, 3.60481092e-03, 7.35885638e-04, 9.64162697e-04,
          1.87508806e-04, 9.55905824e-04, -2.36878567e-03,
          1.36580947e-03, -3.65316262e-03, 2.53735948e-03,
          7.70408241e-03, 2.85953516e-03, 2.83506722e-03, 4.70054569e-03,
          -2.68636504e-04, 8.48827360e-04, 2.25478434e-03,
          -3.70210968e-03, 6.97572075e-04, -2.44920302e-05,
          8.91083619e-05, -7.59941642e-04, -1.69823132e-03,
          1.23215443e-03, 4.44259960e-03, 3.34805605e-04,
          -6.48672867e-05, 2.98551912e-03, 7.31126312e-03,
          7.41266820e-04, -3.86017608e-03, 3.84632149e-04,
          5.31400880e-03, 2.64813588e-03, 7.68094615e-04, 1.06830317e-04,
          2.22000619e-03, 1.95697532e-03, 2.81588896e-03,
          -2.21029646e-03, 3.03335860e-03, 3.12305405e-03,
          1.62278733e-03, 3.25595774e-03, 5.03310794e-03,
          -2.50284933e-03, 5.04475087e-03, 1.16140128e-03,
          2.26616184e-03, 1.86996919e-03, 1.49010646e-03, 5.40558889e-04,
          4.24327096e-04, -4.90680861e-04, -3.45198018e-03,
          3.20567703e-03 ]
      - [ -9.30485839e-04, -6.68987341e-04, -2.06344808e-03,
          2.70757359e-03, 6.51905313e-03, 1.42065750e-03, 5.43026486e-04,
          -3.80451347e-05, -4.02004411e-03, 2.53382605e-03,
          1.08574831e-03, -5.33951679e-03, 6.44487003e-03,
          -6.12542324e-04, 1.27207080e-03, -3.38064507e-03,
          9.17653274e-03, 3.93373985e-03, 1.80627010e-03, 2.22043996e-03,
          3.81848961e-03, 2.51381868e-03, 5.94559417e-04,
          -3.20914660e-05, -2.35094735e-03, 7.62586278e-05,
          1.56753085e-04, 1.79278338e-03, 2.10285489e-03, 2.17575440e-03,
          1.46177516e-03, 7.85211450e-05, -3.10491840e-03,
          -2.67498079e-04, 5.17830253e-03, 3.36531131e-03,
          -5.46773849e-03, 3.19921388e-03, -2.27508834e-04,
          -4.53157671e-04, 3.42645659e-03, 5.62502583e-03,
          3.79400654e-03, 9.75416100e-04, -3.11098993e-04,
          7.10682618e-03, 7.02267932e-03, 1.80040475e-03, 1.09822245e-03,
          -2.79662898e-03, 1.71644660e-03, 1.08908513e-03,
          -2.84878770e-03, 4.70017781e-03, 4.15481720e-03,
          4.11785953e-03, 2.25656666e-03, 4.77253785e-03, 1.76418968e-03,
          1.41135824e-03, 4.75837034e-04, 5.95080492e-04, 2.38123655e-04,
          5.04851900e-03, -2.03219894e-03, 4.51594533e-04,
          1.50618504e-03, -4.53129504e-03, 3.49005009e-03,
          4.37383307e-03, -4.93211998e-03, -1.14722387e-03,
          3.51160276e-03, 2.05297233e-03, -1.61637057e-04,
          1.65218150e-03, -2.16308166e-03, 7.40016345e-03,
          2.36468762e-03, 4.79371147e-03, -2.49175238e-03,
          2.46682274e-03, 7.71953491e-03, 2.68570008e-03, 6.49953913e-03,
          5.89370681e-03, -3.56096920e-04, -2.88189249e-03,
          4.21935739e-03, -7.63615943e-04, -8.47245028e-05,
          -2.37121270e-03, -2.56502558e-03, -1.49791909e-03,
          2.20088684e-03, 6.31442573e-03, 3.23336804e-04, 2.72459700e-04,
          1.49199608e-04, 7.94095686e-04, 1.21135823e-03, 5.40150935e-03,
          -1.66994985e-03, 1.19988841e-03, 3.68099846e-03,
          3.66066303e-03, 7.12445413e-04, 1.65416626e-03,
          -8.66666145e-04, 9.32119146e-04, 8.98952305e-04,
          1.56382227e-03, -2.67222105e-03, 7.44020194e-03,
          3.14439903e-03, 3.97983287e-03, 1.57914148e-03, 2.25078082e-03,
          4.25621448e-03, -6.59228012e-04, -2.56579864e-04,
          4.36638336e-04, 8.28814285e-04, -3.60633567e-04,
          -9.93628404e-04, -1.46228785e-03, 1.20937009e-03,
          8.41703208e-04 ]
      - [ -1.01561374e-04, -2.45080749e-03, -4.68802312e-03,
          1.52334035e-03, 2.38788058e-03, -6.34361466e-04,
          -2.46935146e-04, 0., 4.82013165e-05, -2.07174663e-03,
          3.12286383e-03, 1.59485196e-03, -7.99917252e-05,
          -2.77409563e-03, -1.98057829e-03, 1.89354608e-03,
          1.13090104e-03, 1.57489337e-03, 1.27031002e-03, 8.12740822e-04,
          1.62959017e-03, -4.18963755e-04, 7.75867957e-05,
          2.43089837e-03, 1.57342001e-03, 3.99942603e-03,
          -3.49376164e-03, 1.60852040e-03, 2.19928846e-03,
          1.54116031e-04, -4.71269886e-05, 3.22829175e-04,
          -1.61651196e-03, -1.23941957e-03, 6.56220363e-04,
          3.44833988e-03, 1.10267906e-03, 2.71640811e-03,
          -1.91701192e-03, -1.17573160e-04, 3.07038822e-03,
          8.94484285e-04, 1.50749250e-03, 1.04964187e-03,
          -7.89696758e-04, 1.20377250e-03, -1.81612617e-03,
          7.70274736e-03, -2.78190244e-03, -1.71703461e-04,
          2.47589615e-03, 7.46008533e-04, -2.08640797e-03,
          1.61398295e-03, 4.41526109e-03, 6.35470683e-03, 3.05921794e-03,
          2.50955136e-03, -3.64461029e-03, -3.37627670e-03,
          1.50516315e-03, 4.72778222e-04, 1.06495481e-05, 3.16363806e-03,
          -2.57433765e-03, -5.07132208e-04, -2.10341415e-03,
          -2.43854732e-03, -6.54468662e-04, 2.91632954e-03,
          -2.13858136e-03, -1.22112816e-03, 1.26473513e-03,
          4.17643832e-03, -1.57708989e-03, -1.83709571e-03,
          -1.50758063e-03, 2.65139597e-03, 1.93077454e-03,
          -1.62222469e-03, -3.44250677e-03, 4.43254132e-03,
          4.50858055e-03, 2.84643145e-03, 3.20947939e-03, 3.90018593e-03,
          -9.40063968e-04, -2.44576484e-03, 3.20900534e-03,
          2.95276754e-04, 8.70940392e-04, 8.34562452e-05, 4.38776828e-04,
          -2.00250023e-03, -2.65849591e-03, 2.43882672e-03,
          3.17368074e-03, 2.12375540e-04, -2.15926499e-04,
          2.11745920e-03, 3.31673468e-03, 7.76275352e-04,
          -4.16448107e-03, -2.68153334e-03, 6.09399192e-03,
          2.63977726e-03, 1.30890938e-03, 1.14077737e-03, 2.53443420e-03,
          3.62309651e-03, 1.53237476e-03, -5.13494527e-03,
          1.98857673e-03, 3.22375400e-03, 4.86266706e-03, 4.52489313e-03,
          5.15261525e-03, 1.34647620e-04, 2.86384416e-03, 3.59954522e-03,
          1.96065381e-03, 1.21938891e-03, 1.61277864e-03, 3.17985134e-04,
          3.28486349e-04, 2.25160202e-05, -1.35604164e-03,
          4.54480574e-03 ]
      - [ -1.97607573e-04, -1.46736868e-03, -4.86208079e-03,
          -5.11660706e-04, 3.40280193e-03, -6.83461112e-05,
          -7.97806861e-05, -1.04380651e-05, -1.55888731e-04,
          1.79644744e-03, 1.61337398e-03, 1.02944963e-03, 4.08499874e-03,
          7.88320322e-04, 7.76971574e-04, 2.22259155e-03, 9.84904123e-04,
          1.88809098e-03, 1.47655688e-03, 1.80211384e-03, 4.45520598e-03,
          2.20516091e-03, 2.88881781e-03, 1.48424960e-03,
          -2.03247400e-04, 4.13076021e-03, -1.45093433e-03,
          3.02892178e-03, 3.12491227e-03, 3.81724909e-04, 9.99848271e-05,
          -5.62790432e-04, -1.59996282e-03, -6.01163553e-03,
          -6.02934789e-03, 2.43976852e-03, 1.86577090e-03,
          2.36792490e-03, -1.89793948e-03, 5.25743410e-04,
          -1.08335528e-03, 2.39222241e-03, 4.21639299e-03,
          6.68948051e-04, -2.74519273e-03, 2.58374587e-03,
          4.03484656e-03, 4.63891029e-03, -2.53004162e-03,
          1.30174239e-03, 2.45940359e-03, 2.30340147e-03,
          -3.07443831e-03, 1.44718704e-03, 6.88126078e-03,
          -1.96077977e-03, 3.89820570e-03, 2.36128015e-03,
          -4.11965977e-03, 3.87941487e-03, 4.89196274e-03,
          3.73431901e-03, -2.17206613e-03, -1.89870107e-03,
          -3.93234950e-04, -2.91383214e-04, 4.53893503e-04,
          4.03090520e-03, 4.81001427e-03, 1.08432909e-03,
          -3.20968125e-03, 2.67696125e-03, 5.19018620e-03,
          4.85945493e-03, 2.21164292e-03, 1.16665545e-03,
          -1.38192181e-03, 1.33492437e-03, 1.48545532e-03,
          5.17821405e-03, -3.80270230e-03, 2.07495922e-03,
          7.84962997e-03, 4.62925434e-03, 2.20390689e-03, 3.44769261e-03,
          2.24017096e-03, -5.84288733e-04, 5.36842458e-03,
          -3.07426113e-03, 4.56697948e-04, 1.65524497e-03,
          -4.43935976e-04, -2.70795356e-03, -1.01558911e-03,
          3.95834446e-03, 3.57127562e-03, -3.74968105e-04,
          -3.59328440e-03, 1.13847305e-03, 9.09013581e-03,
          1.00738672e-03, -1.80948689e-03, 2.01594830e-03,
          4.03738488e-03, 4.23271721e-03, 1.62964070e-03, 5.45478717e-04,
          1.81383613e-04, 3.01488908e-03, 2.11634557e-03, 2.93427845e-04,
          -1.70982827e-03, 2.11106776e-03, 4.23710980e-03,
          2.37740111e-03, -5.49812475e-03, -3.43504339e-03,
          2.72650900e-03, 1.11569953e-03, -4.70700487e-03,
          1.94320758e-03, 3.80230439e-03, 4.50005056e-04, 5.44661998e-05,
          -2.34164577e-03, 4.30303975e-04, 1.72617997e-03 ]
      - [ -5.99374645e-04, -4.16359212e-03, -5.23121050e-03,
          -1.59273203e-03, -7.31935026e-04, -1.55742699e-03,
          -3.33479511e-05, -1.18076414e-05, -3.07700626e-04,
          -4.90135653e-03, 3.59700411e-03, 3.57894140e-04,
          1.46306283e-03, -2.36054446e-04, -3.40790975e-05,
          1.35591754e-03, 2.88929301e-03, 3.63429589e-03, 6.23463932e-03,
          -6.84094732e-04, 5.98402461e-04, 8.17468390e-04,
          1.95183174e-03, 2.96741421e-03, 8.52652185e-04, 3.55415838e-03,
          1.46915927e-03, 1.28388498e-03, 7.90546823e-04, 3.94642702e-05,
          1.88343998e-04, 5.27818338e-04, -2.61726999e-03,
          -1.10662810e-03, 5.43227186e-03, 3.45477974e-03,
          -1.58998591e-03, 2.09238799e-03, -1.14673341e-04,
          1.17193107e-04, 2.18552188e-03, 2.20433716e-03, 7.09100906e-03,
          -1.15795480e-03, -2.41587008e-03, 1.38698169e-03,
          1.80333958e-03, 7.57719483e-03, -1.68266392e-03,
          -1.09822932e-03, 8.99338746e-04, -8.23724084e-04,
          -1.53451250e-03, 5.24149649e-03, 5.66646829e-03,
          4.23383666e-03, 2.07235455e-03, 1.26592326e-03,
          -8.20471672e-04, 1.43822609e-03, 1.27174612e-03,
          8.89194780e-04, 1.15010352e-03, 2.88001215e-03,
          -2.40621297e-03, 1.32412504e-04, 6.66918233e-04,
          -3.20727867e-03, -8.04798445e-04, 5.24988398e-03,
          -5.38969471e-04, 1.08456123e-03, 1.10777991e-03,
          8.06289911e-03, 1.58972898e-03, 1.22959947e-03, 1.61923748e-03,
          2.36744410e-03, 2.62202951e-03, -5.08277793e-04,
          -3.53146647e-03, 5.96212968e-03, 8.33790191e-03,
          4.47566481e-03, -1.99118187e-03, 5.80322416e-03,
          2.03470862e-03, -8.24039511e-04, 9.33905714e-04,
          -9.52100731e-04, 1.26483780e-03, 6.89478184e-04,
          9.34955606e-04, 2.29688175e-03, 2.53785076e-03, 2.97538145e-03,
          2.84624984e-03, 9.70954949e-04, 5.46073716e-04, 3.22451256e-03,
          4.30508284e-03, -1.81547320e-03, -1.02485449e-03,
          -1.99188152e-03, 1.92093966e-03, 1.32998941e-03,
          3.36090801e-04, 1.54475405e-04, 9.31223331e-04, 1.77756732e-03,
          5.64810727e-03, -1.57250743e-03, 3.59363039e-04,
          2.30881013e-03, 3.76669085e-03, 4.23984183e-03, 5.18800109e-04,
          -1.37492782e-03, 1.04058906e-03, 1.53762836e-03,
          1.26280938e-03, 7.30273779e-04, 5.64626593e-04, 3.50937305e-04,
          1.69257080e-04, 3.89288791e-04, 2.88092042e-03, 1.45885267e-03 ]
      - [ -3.89405148e-04, -6.04371016e-04, -3.90304555e-03,
          -2.19765492e-03, 6.11344818e-03, 9.69948246e-07,
          -2.56979383e-05, 0., -1.40069824e-04, -4.35621617e-03,
          -3.85299572e-05, 1.93623919e-03, 5.06304204e-03,
          1.45348546e-04, 4.24717029e-04, 3.11906636e-03, 4.97179665e-03,
          2.56888033e-03, 2.04763003e-03, -6.15570461e-04,
          3.69327754e-04, 4.28203202e-04, 1.97142456e-03, 4.12928406e-03,
          1.12940802e-03, 2.49384460e-03, 1.87360286e-03, 2.80887564e-03,
          1.48517184e-03, 2.41975067e-04, 3.05971364e-04, 9.18740756e-04,
          -1.33859983e-03, 1.68616395e-03, 2.03835196e-03,
          -5.60811663e-04, 6.63522980e-04, 1.89680417e-04,
          -1.69968442e-03, 2.78188905e-04, 5.15808025e-03,
          4.95855464e-03, 1.89655897e-04, -1.57731934e-03,
          -5.13541687e-04, 2.28714128e-03, 2.75683193e-03,
          9.30808950e-03, -3.70789459e-03, -1.72194646e-04,
          3.16184550e-03, 3.51933180e-04, 9.20429127e-04, 1.06418564e-03,
          5.12545975e-03, 4.04971652e-03, 2.64353515e-03,
          -1.68963720e-03, -3.27937002e-03, -1.59020745e-03,
          2.09054840e-03, 1.44820055e-03, 1.63685018e-03, 3.00563895e-03,
          -3.44315567e-03, -6.58284000e-04, -1.47030235e-03,
          -4.68646735e-03, 3.78945470e-03, 3.19461478e-03,
          -6.43303618e-03, 1.23634888e-03, 3.63333127e-03,
          7.06766360e-03, -4.68188780e-04, -7.03520083e-04,
          2.51379074e-03, 1.93382718e-03, -2.46258383e-03,
          1.28946523e-03, -1.74011523e-03, 4.10470413e-03,
          4.54113772e-03, 2.26765778e-03, 3.23808356e-03, 4.29168250e-03,
          9.57206590e-04, -5.49548480e-04, 9.20096354e-04,
          -9.31642353e-05, 5.18165471e-04, -3.25379986e-03,
          -2.61057343e-04, 7.50264211e-04, -3.24120326e-03,
          1.54972170e-03, 8.52867262e-04, 4.39152762e-04, 3.09790543e-04,
          1.78806589e-03, 3.71965789e-03, -8.85683112e-04,
          -5.45296399e-03, -9.31423798e-04, 1.42225099e-03,
          4.86356718e-03, 1.27453788e-03, 3.78985045e-04, 6.03935274e-04,
          3.97684379e-03, 4.37019888e-04, -1.14370952e-03,
          2.37982487e-03, 3.26148001e-03, 1.10039220e-03, 2.56401068e-03,
          2.22185533e-03, 1.60342068e-04, 7.84580945e-04, 2.29629083e-03,
          1.60372711e-03, 1.67732371e-03, 1.31301326e-03, 7.87585508e-04,
          4.51657135e-04, -4.67499603e-06, -4.24064323e-03,
          4.27744677e-03 ]
      - [ -7.90023405e-05, 6.52992021e-05, -4.69760550e-03,
          9.03088483e-04, -3.50471928e-05, -3.09755467e-03,
          -2.94465713e-06, 2.26111988e-05, 2.12889072e-03,
          1.01690891e-03, -5.91366879e-05, 9.16572579e-04,
          7.65551405e-04, -1.69506075e-03, -2.09886581e-03,
          1.17175933e-03, 3.70017311e-04, 6.43077015e-04, 1.96484220e-03,
          2.99212290e-04, 4.73225751e-04, 7.67879770e-04,
          -6.28105830e-04, 7.11374043e-04, -3.36017180e-03,
          1.58953550e-03, 1.15973665e-03, 3.42058833e-04, 1.05248073e-04,
          1.85227458e-04, 2.14628119e-04, 2.29041223e-04,
          -1.08898757e-03, 7.98477675e-04, -3.90630867e-03,
          1.18706096e-03, 2.23843940e-03, 3.19004030e-04,
          -9.09750932e-04, 2.99326261e-04, 5.27434098e-03,
          5.09472471e-03, -1.36993884e-03, 1.82094600e-03,
          -1.24255754e-03, -6.61104044e-04, -7.64297496e-04,
          2.71304580e-03, -1.37318915e-03, -1.35267607e-03,
          1.72933622e-04, 2.08079047e-03, 5.00077324e-04, 7.79467809e-04,
          2.01794738e-03, 1.11296808e-03, 9.24542779e-04, 3.26328631e-03,
          1.35773700e-03, 1.31772726e-03, 2.24298579e-04, 4.61632386e-04,
          6.13302167e-04, 9.55898024e-04, -1.39946979e-03,
          1.97368703e-04, -1.78857893e-03, 5.17654698e-04,
          2.99915345e-03, 3.94769246e-03, -2.35685799e-03,
          -3.25079658e-04, 2.64931237e-03, 1.98958907e-03,
          -2.03212228e-04, 3.67310160e-04, 1.36701565e-03,
          3.11325374e-03, -1.98827055e-03, 5.27659804e-03,
          -2.94082309e-03, 1.52084860e-03, 3.28559056e-03,
          -3.30136791e-05, 6.03375607e-04, 2.40272959e-03,
          5.33978222e-04, -1.62644545e-03, 1.59181259e-03,
          -1.96586901e-04, -2.65199313e-04, -2.25908865e-04,
          -1.19856295e-05, 4.85291035e-04, 1.01520971e-03,
          3.19214212e-03, 9.69987246e-04, 1.26311468e-04,
          -4.39679716e-04, -1.53574219e-03, 1.31195458e-03,
          2.69900565e-03, -5.42103453e-03, -3.46377585e-03,
          2.71624699e-03, 1.13732461e-03, 1.51366301e-04, 3.21880332e-04,
          2.98804580e-03, 1.63805368e-03, 6.33643183e-04,
          -9.52109112e-04, 2.47501745e-03, 1.10541272e-03,
          7.31218664e-04, 1.40521952e-04, 2.64424249e-04, 1.12329284e-03,
          2.28831865e-04, -1.05791760e-03, 3.53509415e-04,
          -2.64033879e-04, -1.05206884e-04, -1.22448240e-04,
          -8.54420341e-06, 4.90979619e-05, 2.62526592e-04,
          1.53817260e-03 ]
      - [ -1.06540578e-03, -2.45936797e-03, -3.88126750e-03,
          -2.10958999e-03, 1.82289153e-03, -1.26429519e-03,
          -1.26121263e-03, -7.31820241e-04, -6.58768229e-04,
          -7.21245306e-04, 2.67017679e-03, 2.61313817e-03,
          5.00982162e-04, -9.32560128e-04, -8.77031824e-04,
          3.02814250e-03, 3.13163223e-03, 3.86341591e-03, 1.64317258e-03,
          -4.62139491e-03, -3.04208021e-03, 2.14047334e-03,
          3.25676240e-03, 2.63262144e-03, -7.42344826e-04,
          -8.77118902e-04, -1.09759986e-03, 5.50265773e-04,
          1.53922394e-03, 6.14876510e-04, 6.73692615e-04,
          -8.95077072e-04, -1.25110929e-03, -1.25289243e-03,
          -1.88636733e-03, 3.56238848e-03, -9.72689246e-04,
          4.47384967e-03, -4.77473531e-03, -1.64175837e-03,
          4.53571975e-03, 6.24596514e-03, 2.28184508e-03, 1.26234168e-04,
          -1.41081237e-03, 1.27846282e-03, 1.62397895e-03,
          4.28446615e-03, -3.51707870e-03, -1.37458800e-03,
          1.10079080e-03, -1.22927455e-03, 2.35078391e-03,
          2.23766407e-03, 7.42457155e-03, 2.19642604e-03, 3.46288923e-03,
          1.37021148e-03, -1.66047644e-03, 1.18285534e-03,
          1.79118942e-03, 1.71161431e-03, 5.00910450e-04,
          -2.64999602e-04, -5.32620761e-04, -3.85387102e-04,
          -4.84263204e-04, 5.99102641e-04, 2.80805840e-03,
          4.21070168e-03, -1.18630321e-03, -2.94048199e-03,
          4.89988038e-03, 2.66701425e-03, 1.71819772e-03,
          -2.08835560e-03, 6.41169958e-04, 3.66936438e-03,
          -2.89607589e-04, 5.07251034e-03, -5.75914048e-03,
          2.63095787e-03, 7.08412193e-03, 2.14647129e-03, 5.60041005e-03,
          3.36647010e-03, 7.08552485e-04, -1.83880073e-03,
          3.35646211e-03, 3.20789026e-04, 1.00332696e-03, 8.84319481e-04,
          2.69737793e-04, -2.17691646e-03, -1.39676721e-03,
          4.43215854e-03, 1.06563873e-03, -1.44208621e-04,
          -5.26735268e-04, -1.38041610e-03, 3.30389920e-03,
          1.42769690e-03, 8.77218190e-05, -1.12211716e-03,
          -3.98657721e-04, 1.38922420e-03, 5.86921757e-04,
          9.68172099e-04, 5.66955702e-03, 2.37159617e-03, 5.28017990e-04,
          -1.19840109e-03, -1.71281840e-03, 3.28387506e-03,
          3.50908563e-03, 3.31216143e-03, 1.85900857e-03,
          -1.21421341e-04, 2.07964238e-03, 2.61687767e-03,
          4.03946324e-04, 1.05448696e-03, 1.74929958e-03, 7.45084428e-04,
          1.87512633e-04, -5.59821667e-04, -5.91887219e-04,
          1.72982004e-03 ]
      - [ -6.27776957e-04, -4.58945101e-03, -6.70734653e-03,
          -1.04545860e-03, 2.99896137e-03, -8.79692496e-04,
          -7.00316159e-05, -4.29462416e-05, 1.39665999e-03,
          -2.98549677e-03, 3.92411603e-03, -1.07430438e-04,
          -1.65088370e-03, -4.26907465e-03, 9.82979473e-05,
          1.95470522e-03, 1.80970924e-03, 1.64673536e-03,
          -5.59381733e-04, -4.84304316e-03, 1.62448303e-03,
          -2.57516978e-04, 5.59020275e-03, 4.23884531e-03,
          7.21421908e-04, 1.46560301e-03, -4.34240000e-03,
          2.18556053e-03, 3.91307054e-03, 2.21019538e-04, 5.77375758e-04,
          1.02064211e-03, -2.62132124e-03, -7.48949824e-03,
          2.86643426e-05, 1.59014307e-03, -7.26679049e-04,
          6.92145841e-04, -1.92981039e-03, -4.27278166e-04,
          7.63034541e-03, 5.80209540e-03, -3.90422530e-04,
          1.87621941e-03, 7.54354463e-04, 5.25378680e-04, 3.95066757e-03,
          6.98879035e-03, -4.80884686e-04, -5.46078023e-04,
          3.05821863e-03, 1.24489551e-03, -5.21489186e-03,
          1.25280267e-03, 4.96851467e-03, 2.03456567e-03, 1.31549232e-03,
          3.29763233e-03, -1.70734804e-03, 5.18224714e-03,
          3.30773159e-03, 2.21380545e-03, -6.87134161e-04,
          2.73103989e-03, -9.26209264e-04, -1.24373275e-03,
          3.74829164e-04, -1.69143124e-04, 2.01045210e-03,
          4.26542060e-03, -5.79845067e-03, 1.91882893e-03,
          4.05787909e-03, 4.11041500e-03, 1.12645456e-03,
          -3.30932584e-04, -3.47607944e-04, 3.76578397e-03,
          8.58055602e-04, 3.66759952e-03, -2.67457101e-03,
          3.86102428e-03, 4.56083147e-03, 4.76761581e-03,
          -2.92259571e-03, 7.52710132e-03, 1.38245712e-04,
          -3.15682986e-03, 2.06520152e-03, -1.11238542e-03,
          -2.52123945e-03, 5.17126580e-04, -8.24689632e-04,
          2.59541185e-03, -1.51145109e-03, 2.35614507e-03,
          4.75464063e-03, -8.20726797e-04, -6.83617836e-04,
          1.70378515e-03, 1.09155767e-03, 1.12082693e-03,
          -7.69298710e-03, -7.37871218e-04, 6.27003051e-03,
          7.66354322e-04, 2.32891203e-03, -1.51117961e-03,
          5.05925389e-04, 1.06952677e-03, 1.33409863e-03,
          -4.37338604e-03, 1.65757001e-03, 3.24226986e-03,
          4.75870958e-03, 4.53040050e-03, -3.30715836e-03,
          -4.20346064e-03, 2.28552194e-03, -1.39133132e-03,
          -2.51752720e-03, 1.54758862e-03, 1.47505663e-03,
          2.19334164e-04, -4.61892341e-04, -1.17280101e-03,
          -3.16580548e-03, 3.08249681e-03 ]
      - [ -1.17862524e-04, -4.34818165e-03, -5.27174864e-03,
          -1.60914191e-04, 3.84622230e-03, -7.64677883e-04,
          -1.06129854e-04, -1.15413541e-05, 1.26409705e-03,
          -1.72971387e-03, 1.43631839e-03, 2.24138959e-03,
          9.97170224e-04, -5.02423442e-04, -5.29214274e-04,
          1.78448483e-03, 3.48429824e-03, 1.83668989e-03, 1.57639012e-03,
          1.35259598e-03, 1.55526458e-03, 1.67336920e-03, 2.73886858e-03,
          1.71407498e-03, 6.16244331e-04, 1.69284292e-03, 2.23986316e-03,
          2.87014456e-03, 1.22312515e-03, 3.80791520e-04, 1.38900115e-03,
          1.32814702e-03, -1.75596518e-03, -1.03615865e-03,
          -3.17209121e-03, 3.35856271e-03, 2.69044098e-03,
          1.98849523e-03, -1.43863005e-03, -1.84264703e-04,
          3.50400130e-03, 5.14153205e-03, 1.25559780e-03,
          -1.85798799e-05, -1.52445899e-03, 1.41027721e-03,
          1.22142327e-03, 5.57058211e-03, -3.39232641e-03,
          -1.07654545e-03, 3.40105686e-03, 2.22813431e-03,
          8.53586185e-04, 1.17121986e-03, 3.21949087e-03, 4.55027074e-03,
          2.96970806e-03, 2.80205568e-04, -3.86896497e-03,
          4.21596039e-03, 3.31697264e-03, 1.04030711e-03, 8.23582115e-04,
          3.34286969e-03, -2.71307305e-03, 7.25637481e-04,
          4.56854497e-04, -1.36804103e-03, 8.14111700e-05,
          1.50453974e-03, -4.53385664e-03, -2.07908917e-03,
          6.06962666e-03, 3.79866641e-03, -1.35978952e-03,
          1.07159838e-03, 6.33624324e-04, 1.05516973e-03, 8.20533431e-04,
          4.31219023e-03, -1.67963677e-03, 5.16716065e-03,
          6.55251089e-03, 2.99036060e-03, 4.49626520e-03, 3.88161698e-03,
          -8.03346862e-04, -8.19905836e-04, 1.10806548e-03,
          -2.78774532e-03, -6.07604580e-03, -3.69221717e-03,
          -1.43216562e-03, 3.15162470e-04, 3.39776510e-04,
          2.44611781e-03, 3.25540989e-03, 2.95128732e-04,
          -1.60486161e-04, 3.96555639e-04, 3.06539843e-03,
          1.49630348e-03, -6.54413924e-03, -3.73767759e-03,
          6.52216747e-03, 3.27659515e-03, 2.17187451e-03, 9.99261392e-04,
          2.09812378e-03, 2.49316217e-03, 2.24055862e-03,
          -1.70156895e-03, 3.76515626e-03, 4.69745323e-03,
          2.26210104e-03, 2.16782792e-03, 2.56986683e-03,
          -1.25444727e-03, 3.07835732e-03, 3.11411032e-03,
          1.36927620e-03, 7.22727040e-04, 1.07144576e-03, 3.55922093e-04,
          -6.16500183e-05, -1.25901459e-03, -7.98301864e-03,
          4.81279480e-04 ]
      - [ -3.50634655e-04, -1.98727171e-03, -2.20766221e-03,
          -2.27636448e-03, 7.74228759e-03, -2.11487338e-03,
          -3.34667711e-04, -6.78151555e-05, 2.06528464e-03,
          -6.05323398e-03, 1.97807630e-03, -2.38847570e-05,
          -2.87750270e-04, -3.66437854e-03, -5.90466487e-04,
          2.00284040e-03, 3.80683062e-03, 1.90445280e-03, 2.01444118e-03,
          -4.78393573e-04, 8.94386612e-05, 1.33751557e-04,
          -6.90707297e-04, 1.52950233e-03, -1.31148874e-04,
          -3.01174214e-03, 3.58995097e-03, 4.48583480e-04,
          9.03142136e-05, 1.01622034e-04, 3.74501833e-04, 2.34730134e-04,
          -3.96720273e-03, -1.84768124e-03, 8.47826945e-04,
          9.85098450e-05, 7.14762369e-04, 3.44922557e-03, 1.47446452e-04,
          1.00663642e-03, 2.67889211e-03, 1.14212958e-02, 2.87138624e-03,
          1.28709339e-03, 2.34619738e-03, 7.43631448e-04,
          -7.49398838e-04, 8.95170309e-03, -2.36164918e-03,
          -1.88631704e-03, 1.69933657e-03, -4.69968334e-04,
          1.57672679e-03, 5.87073807e-03, 4.15468635e-03, 3.46142479e-04,
          3.91183002e-03, 3.31919454e-03, 4.86385496e-03, 2.24571838e-03,
          1.22777885e-03, 1.51871424e-03, -5.73258707e-03,
          -1.12861348e-03, -3.87570402e-03, 8.21186346e-04,
          1.84634596e-03, -2.59349006e-03, 3.15649132e-03,
          2.41725100e-03, -6.07098453e-03, -2.97911535e-03,
          -1.64056662e-03, 8.69973097e-03, 2.07885518e-03,
          1.35093031e-03, 3.05452943e-03, 2.50531244e-03, 1.24471844e-03,
          7.06471456e-03, -4.37512528e-03, 2.25024461e-03,
          -3.51289031e-03, 3.27178021e-03, 6.43122126e-04,
          2.70376028e-03, -2.57552369e-03, -6.44521147e-04,
          3.81300622e-03, -7.57292946e-05, 5.03985560e-04,
          1.58416433e-03, 3.87260749e-04, 4.43031080e-04,
          -1.56574417e-03, 6.22614473e-03, 1.12170307e-03,
          3.01061344e-04, -1.55385802e-04, -4.37861978e-04,
          2.18562200e-03, 1.87665434e-03, -4.08026064e-03,
          -2.14858702e-03, 1.72958113e-04, 4.45381645e-03,
          1.59343728e-03, 5.55959297e-04, 3.54915415e-03,
          -4.65249410e-04, 1.15643546e-03, -2.67448439e-03,
          -2.23185300e-04, 5.40186418e-03, 9.67846310e-04,
          1.67946832e-03, 1.18079828e-03, -2.07224002e-05,
          1.11187354e-03, -1.69405155e-03, 2.80936412e-03,
          -7.50509615e-04, -1.15093251e-03, 2.72601523e-04,
          3.17238941e-04, 2.99763138e-04, 1.25571655e-03, 3.91164981e-03 ]
      - [ -8.73764337e-04, 2.38367520e-05, 7.04856764e-04,
          3.89188463e-05, -1.09844771e-03, 3.42385843e-04,
          1.76162657e-03, 1.06962735e-03, 1.12341149e-04, 9.16602439e-04,
          -2.24521253e-04, 7.96189051e-05, 5.19856636e-04,
          8.14576400e-04, 8.11090227e-04, 5.50689110e-05, 1.25002791e-03,
          1.48893188e-04, 1.99173414e-03, -9.48395231e-04,
          1.48051383e-03, -4.65632882e-04, 8.28958408e-04,
          -4.59452567e-04, 1.64831581e-03, 1.29310414e-03,
          6.82901358e-04, 4.76190005e-04, 7.19132950e-05,
          -4.01114026e-04, -1.50844906e-04, 2.42357934e-03,
          -9.70099587e-04, -4.08481392e-05, 4.70319617e-04,
          3.27673130e-04, -3.45804234e-04, -3.22565553e-04,
          8.74751422e-04, 1.76848320e-03, -6.62774371e-04,
          -2.91417731e-04, 4.58148075e-04, 1.55072450e-03,
          1.62408769e-03, 4.07264684e-04, 2.05346296e-04,
          -1.07065006e-03, -1.43219091e-04, 1.30620983e-03,
          4.04290477e-05, -7.54589273e-04, -2.41882241e-04,
          -1.83516095e-05, 3.72997602e-04, -2.53794715e-04,
          -3.71140195e-04, -1.99657239e-04, 2.27403667e-04,
          1.57758230e-04, -1.39917960e-04, 3.48161324e-04,
          -9.02791100e-04, 4.56646463e-04, 4.30833548e-04,
          1.29636508e-04, -3.02197586e-04, -3.98780918e-04,
          8.74620673e-05, 7.08125299e-04, 4.15617433e-05, 6.00293570e-04,
          -1.76690333e-03, 1.57284248e-03, -1.44669219e-04,
          1.93327607e-03, -5.35814324e-04, 2.24195071e-03,
          1.17719523e-04, -1.68833381e-03, 6.74673531e-04,
          1.33705302e-03, 1.15964562e-03, 1.06575072e-03, 3.79827019e-04,
          7.65535879e-05, -4.36090522e-05, 1.29756250e-03,
          7.12952286e-04, 5.30951598e-04, 1.19295216e-03, 2.17202105e-04,
          -3.60190868e-04, -3.60592348e-05, 3.28437818e-06,
          -3.26830981e-04, -9.23987172e-05, -1.45306389e-04,
          1.40015778e-04, 6.49713329e-04, 8.41578003e-04,
          -4.04004182e-04, 1.08445215e-03, -1.62212865e-03,
          1.45621272e-03, -5.94282639e-04, 6.15640311e-04,
          1.05980749e-03, 8.22083035e-04, 1.55907951e-03, 4.09845379e-04,
          -9.50859030e-05, 9.98734264e-04, -1.56861250e-04,
          5.24160743e-04, -4.61371761e-04, 8.45033937e-05,
          2.45453295e-04, 7.55932590e-04, 1.78684291e-04, 7.74337968e-04,
          9.79937497e-04, 5.99794846e-04, 4.87886893e-04, 1.11946138e-04,
          5.33015736e-05, 2.81829998e-04, -4.37561161e-04 ]
      - [ 8.97859631e-04, 7.39989453e-04, -8.31692421e-04,
          5.06367534e-04, 5.24601014e-03, 4.49388707e-03,
          -1.63096644e-04, -7.45338388e-04, 2.15855689e-04,
          4.67128120e-05, 1.71232142e-03, 1.55131856e-03, 4.86208498e-03,
          -6.43775093e-06, -6.21783023e-04, 4.98123467e-04,
          2.10240437e-03, 8.90839205e-04, 1.80841505e-03, 2.91177363e-04,
          -4.82312345e-04, -1.84556982e-03, -1.05055376e-04,
          4.81511554e-04, 1.34859409e-04, 2.57599261e-03,
          -6.09376759e-04, -3.36884358e-03, -5.22027607e-04,
          -3.99236975e-04, -4.50151929e-05, -4.61548421e-04,
          -2.64236331e-03, -2.75289407e-04, 1.29940535e-03,
          -2.98115844e-03, 2.16288888e-03, 6.60327729e-04,
          4.06277087e-03, -2.79812235e-03, -1.76828960e-03,
          1.52284070e-03, -2.30778987e-03, 1.72437390e-03,
          -1.96978194e-03, 2.07494784e-04, -5.09929960e-04,
          -3.14807240e-03, -3.75404547e-04, 1.20449156e-04,
          -3.89744237e-04, -1.99273182e-03, 2.21813307e-03,
          1.99518108e-04, -4.56406473e-04, 5.06199012e-03,
          9.26504494e-04, -1.25388370e-03, -8.14710977e-04,
          -6.03934238e-03, -7.04660371e-04, -4.17925949e-05,
          -1.72833900e-03, -9.75850562e-04, 1.44296861e-03,
          5.53953985e-04, 1.51693111e-03, 3.45494412e-03, 1.17381290e-03,
          1.69797672e-03, 1.08279579e-03, 2.88913987e-04,
          -1.95920072e-03, 6.51950249e-05, -2.20994256e-03,
          2.35763052e-03, -3.72298760e-03, -4.95216227e-04,
          -3.44042340e-03, 6.07175520e-04, -1.33913581e-03,
          4.88604011e-04, -2.33721221e-03, -2.28309305e-03,
          -4.50909021e-04, -4.96549392e-03, -1.73405709e-03,
          4.86220197e-05, -3.22737586e-04, 2.75325309e-03,
          -3.17628641e-04, -1.94885093e-03, -8.00833732e-06,
          1.97447278e-03, -5.55186925e-05, -1.01828028e-03,
          -2.83744099e-04, 5.47675474e-04, 4.35876806e-04,
          2.30170600e-03, 2.74805934e-03, 6.32971525e-04,
          -2.28284230e-03, -4.00807156e-04, -1.19092048e-03,
          2.40893313e-03, 5.68815682e-04, -1.39968717e-04,
          1.30292424e-03, 2.67137337e-04, 7.91499682e-04, 1.80998025e-03,
          6.72905066e-04, 2.35137017e-03, -1.77119975e-03,
          -2.25935900e-03, 2.62150238e-03, 1.24758692e-03,
          4.34543850e-04, -1.27415860e-03, 1.23884494e-03,
          2.18518428e-03, 1.89354003e-04, 8.20283371e-04, 1.37079635e-03,
          2.44499091e-03, 2.83920811e-03, -6.96663454e-04 ]
      - [ -1.77978410e-03, -6.74501425e-05, 1.74778712e-03,
          3.44112777e-04, 1.17134687e-03, 2.37368606e-03, 8.05392163e-04,
          9.25230561e-04, 4.20467200e-04, 1.14196539e-03, 4.33028123e-04,
          -2.10164860e-03, -7.51909858e-04, -7.95643777e-04,
          3.69731337e-04, 1.27063147e-04, -8.51463643e-04,
          3.78424273e-04, 1.65266480e-04, -6.19276194e-04,
          1.21278828e-03, 5.68817602e-04, 7.01498415e-04,
          -9.02328116e-04, 1.04140991e-03, -2.22147264e-05,
          1.11367682e-03, 6.94481074e-04, 4.41297423e-04,
          -6.89651497e-05, 2.76512699e-04, 3.70155991e-04,
          -9.37912671e-04, 8.66428963e-05, 3.07910203e-04,
          -2.87929346e-04, 5.78102190e-04, -2.32976308e-05,
          4.73748689e-04, 1.31486298e-03, 1.54121651e-03, 6.98784075e-04,
          1.00283616e-03, -2.04338721e-04, -5.22562012e-04,
          -6.59846526e-04, -4.27080551e-04, -1.90432195e-03,
          -4.62915486e-05, -6.67309039e-04, -6.96425210e-04,
          -6.58851524e-04, 3.73053976e-04, -1.31984561e-04,
          5.54072845e-04, -3.16756574e-04, -9.50144022e-04,
          3.07536771e-04, -1.54434747e-04, 3.44133616e-04,
          -1.81343348e-04, -2.92520592e-04, -3.97616823e-04,
          7.26733881e-04, 7.95011816e-04, 1.13326055e-03, 2.02902884e-04,
          1.01619528e-03, 9.10791336e-04, 8.09936901e-04, 7.70661165e-04,
          4.72942251e-04, -6.07790891e-04, -1.02311757e-03,
          1.37325167e-03, -3.98511929e-06, 5.49682649e-04,
          2.35400876e-04, -4.05286002e-04, 4.34395595e-04,
          -1.35948986e-03, -5.05285629e-04, 3.12013697e-04,
          8.08864017e-04, 1.25234819e-03, -5.86940267e-04,
          -4.38786985e-04, 4.63255710e-04, -5.72462741e-05,
          -4.08096908e-04, 1.53006666e-04, 9.25357199e-06,
          -5.66876261e-04, -1.47047118e-04, -6.63021288e-04,
          1.36203234e-04, 5.42833179e-04, 1.14711339e-03, 3.99122000e-05,
          5.13815321e-04, 1.15484616e-03, 1.05619302e-03, 1.11396075e-03,
          1.13780967e-04, 1.11632328e-03, -4.79466282e-04,
          8.00522859e-04, 8.69389973e-04, 5.01619943e-04, 6.28659036e-04,
          -3.59856436e-04, 7.94577296e-04, -1.19757220e-04,
          -6.46847184e-04, -5.42429974e-04, 1.85121797e-04,
          -2.62436247e-03, 1.73332158e-03, 9.69426415e-04,
          -2.42292517e-04, -5.46499996e-06, 1.09149190e-03,
          -4.88167512e-04, 5.36476786e-04, -1.77457914e-05,
          -1.28143392e-05, 5.11991850e-04, -6.18710939e-04 ]
      - [ 1.50878262e-03, -1.43813621e-03, -2.00611830e-05,
          -6.51451352e-04, 4.55758860e-03, 4.01270622e-03,
          1.85327872e-03, 1.38166826e-03, 7.78273330e-04, 1.37237378e-03,
          2.03482644e-03, 7.53198517e-04, 2.71204836e-03,
          -1.66786631e-04, -5.58559841e-04, 4.08641703e-04,
          4.91408340e-04, 1.30617828e-03, 3.20691266e-04, 4.07624233e-04,
          4.14266065e-03, -5.39688161e-04, -2.22195522e-03,
          -1.94589654e-03, 3.06216720e-03, 1.60171953e-03,
          2.33872663e-04, 6.97130672e-05, 2.57227744e-04, 4.62547396e-05,
          -4.95217973e-04, 2.09658378e-04, -2.94752349e-03,
          1.44950673e-03, -1.51358941e-03, -3.38486815e-03,
          9.79242497e-04, -2.17948458e-04, 4.22771554e-03,
          2.72799912e-03, 7.16206094e-04, -2.57308525e-03,
          -7.26412807e-04, 1.65385299e-03, -3.81979975e-03,
          1.97645184e-03, -2.87569244e-03, -2.66652810e-03,
          7.02158315e-04, -1.07935441e-04, -1.07631786e-03,
          -1.59532914e-03, 1.56870973e-03, 1.87363743e-03,
          -4.82220855e-03, 1.27782568e-03, 6.26054767e-04,
          1.12557132e-03, -6.89659151e-04, -1.18861860e-03,
          1.73054257e-04, -1.35646056e-04, -8.82474997e-04,
          2.17266707e-03, -4.62688535e-04, 2.74837646e-03,
          2.11128150e-03, 3.82701075e-03, -4.13553265e-04,
          2.09200406e-03, 2.54869531e-03, 4.73779906e-03,
          -3.83948954e-03, 1.07742229e-03, -3.68378009e-03,
          3.39267636e-03, -6.39709784e-03, 3.19326937e-04,
          -2.45688134e-03, -1.37017935e-03, -3.10816627e-04,
          -3.47274210e-04, -1.58004358e-03, 1.24096626e-03,
          -2.85386428e-04, -6.25379710e-03, -9.67209518e-04,
          -1.66524679e-03, -2.27902434e-03, 3.43781925e-04,
          1.83874043e-03, 8.54793587e-04, 8.35449260e-04, 8.26978299e-04,
          -1.59210397e-03, -6.16504229e-04, 7.47344107e-04,
          1.68878923e-03, -1.09248993e-03, 2.34778645e-03,
          -1.15355779e-03, 6.17297075e-04, -3.00742540e-04,
          -2.92917714e-03, 2.06958177e-03, 1.34092115e-03,
          -1.45141524e-03, 4.88099613e-04, 9.50381858e-04,
          1.21380447e-03, 3.31011158e-03, 7.69277802e-04, 1.44796248e-03,
          1.64013868e-03, 1.70839415e-03, 7.95223983e-04, 7.88016245e-04,
          3.01955943e-03, -5.43547270e-04, -3.45720444e-04,
          3.32130329e-03, 1.46438100e-03, 9.73739661e-04, 5.01720002e-04,
          4.97729110e-04, 3.12116952e-03, 2.41080462e-03, 1.32578658e-03 ]
      - [ -1.13320304e-03, -4.39306779e-04, 5.11000806e-04,
          -1.11578869e-04, 3.66788590e-03, 3.26194800e-03,
          1.06842513e-03, 1.06413022e-03, 5.83061192e-04, 1.72050507e-03,
          -1.54424948e-03, -4.65830177e-04, 2.04586587e-03,
          8.86921713e-04, 3.88933957e-04, -3.25727306e-04,
          -6.48847126e-05, 8.55192426e-04, 1.61602555e-04,
          1.88357395e-03, 4.01786249e-03, 1.80527291e-04, 2.73798098e-04,
          -4.70520929e-04, 1.12293998e-03, -3.13000608e-04,
          -6.88354194e-04, 3.14175006e-04, 4.33659938e-04,
          1.85587458e-04, 4.19986201e-04, 1.30453694e-03,
          -9.62223276e-04, -5.97368402e-04, -2.03851005e-03,
          -1.17558835e-03, 9.93423237e-06, -3.32189782e-04,
          1.96198770e-03, 2.23743124e-03, -1.00564526e-03,
          -1.00316247e-03, 9.02980741e-04, -8.23302660e-04,
          1.26946042e-03, 1.56684115e-03, -7.68896774e-04,
          -1.59778632e-03, 2.82615692e-05, 8.39457964e-04,
          6.29002636e-04, 1.87309532e-04, 2.82605528e-03, 1.35996868e-03,
          -1.61461474e-03, -7.01145269e-04, -8.95606936e-05,
          -5.11451799e-04, -2.28553527e-05, -6.47180423e-04,
          -3.44482803e-04, -4.52629029e-04, -1.18057500e-03,
          -2.44832132e-03, 3.18565499e-03, 2.77183717e-03,
          2.54751998e-03, -1.45490412e-04, -8.83015979e-04,
          1.18224428e-03, 2.44292757e-03, 3.87169723e-03,
          -1.61025673e-03, 2.52874824e-03, 2.54840311e-03,
          8.05132149e-04, -2.50474573e-03, 1.23852340e-03,
          -4.44440433e-04, -2.91839824e-04, 1.44800963e-03,
          -3.91941110e-04, -6.64291671e-04, -2.58586230e-03,
          -1.41582661e-03, -2.45189434e-03, -6.69169240e-04,
          -3.50386836e-04, -7.83289666e-04, 1.36050861e-03,
          4.64464247e-04, 1.33732625e-03, -1.34924485e-04,
          -2.14424450e-04, -4.00837185e-03, -2.99495441e-04,
          1.23568007e-03, 1.30761333e-03, -2.72613554e-03,
          -3.85187705e-05, 3.20156384e-03, -7.25166174e-04,
          1.62509969e-04, 1.10914768e-03, 2.94184685e-03, 1.08601095e-03,
          -8.53309233e-04, 3.79410619e-03, 1.92391744e-03,
          8.89969466e-04, -1.14469894e-03, 3.26073525e-04,
          6.59706537e-04, 1.96348480e-03, 1.36910312e-04,
          -1.46335806e-03, -3.32887808e-04, 1.12459296e-03,
          -6.66485634e-04, -5.58087893e-04, -8.72154138e-04,
          1.23912381e-04, 6.77796139e-04, 8.13999213e-04, 1.19968480e-03,
          8.69514595e-04, -2.04869732e-03, -1.16172933e-03 ]
      - [ -2.51672376e-04, -2.13005609e-04, 9.88746411e-04,
          9.35968186e-04, 1.19111501e-03, 2.44479254e-03, 1.27005638e-04,
          1.17351045e-03, 9.09466296e-04, 2.53925915e-04, 1.34754984e-03,
          2.33335624e-04, -1.61491684e-03, 1.84631368e-04,
          -4.35765425e-04, 1.83118318e-04, 6.61514292e-04,
          4.66629310e-04, 8.07336124e-04, 5.23022900e-04, 1.00049435e-03,
          -3.48525529e-04, 3.33690579e-04, 1.92784297e-03,
          2.29574973e-03, 2.12081708e-03, 6.63918501e-04, 3.73762487e-05,
          3.61470476e-04, -6.08757437e-05, 1.12279246e-04,
          1.79644488e-03, -4.17201489e-04, 1.08347798e-03,
          4.09159780e-04, 3.31571151e-04, 7.54737470e-04,
          -1.39807246e-03, 1.46034849e-03, 3.26127233e-03,
          -4.72944201e-04, -1.04426581e-04, 4.10735782e-04,
          -7.48414139e-04, -1.01524682e-04, 1.28150382e-03,
          -2.19959678e-04, -1.91601808e-03, 5.58217173e-04,
          -1.07607408e-03, 6.07772090e-04, 4.34319300e-05,
          1.19980425e-03, -5.90835174e-04, 2.37273765e-04,
          1.69361811e-04, -1.47084286e-03, -9.73646995e-04,
          5.38896245e-04, 3.61562532e-04, 2.19202684e-05, 1.00149264e-04,
          5.31940423e-05, 7.81383307e-04, 1.08247413e-03,
          -3.00835727e-05, 2.45495769e-03, 5.58666477e-04,
          1.85292272e-03, 1.26546144e-03, 1.73415523e-04, 1.91437977e-03,
          -9.35838441e-04, 1.61694398e-03, -2.04484980e-03,
          7.33492547e-04, -2.46360176e-03, -6.69627334e-04,
          2.94287154e-03, 1.92770851e-04, -5.61447872e-04,
          1.82408036e-03, 6.66173350e-04, 3.43963038e-03, 3.56779870e-04,
          -2.14837404e-04, -7.67034304e-04, -6.14284829e-04,
          -6.68016088e-04, 1.58022076e-03, 1.15343486e-03,
          1.53077813e-03, -1.01744651e-03, 3.08648683e-04,
          -2.73484446e-04, -5.01676288e-04, 1.78160530e-03,
          4.31957713e-04, 1.33597536e-03, 2.52196915e-03,
          -2.07419996e-03, 1.19445473e-03, 2.14920845e-03,
          -2.49930169e-03, 1.34114770e-03, -4.09631699e-04,
          -6.91986992e-04, 2.16805981e-03, 2.95700767e-04,
          -2.52542261e-04, 5.80566819e-04, -1.49472221e-03,
          -8.46560230e-04, 8.97681224e-04, 2.49622273e-04,
          1.26979465e-03, -1.15138968e-03, 2.31204656e-04,
          1.23891607e-03, -1.83945871e-03, 2.96605495e-03,
          3.04064876e-03, 1.00471638e-03, 1.55178097e-03, 2.21556664e-04,
          1.18257606e-03, 1.31187448e-03, -1.21162797e-03 ]
      - [ 1.21051981e-03, 2.82990397e-03, 1.57166959e-03, 5.29724639e-05,
          7.05750240e-03, 3.47286114e-03, -7.66635814e-04,
          1.66984182e-03, -1.50165195e-03, -9.69014713e-04,
          -1.83566415e-03, -9.36938741e-04, 3.83239449e-03,
          -1.15259667e-04, -2.83570425e-03, 9.25425265e-04,
          2.09039846e-03, -4.95069660e-04, 4.59587027e-05,
          2.26197205e-03, 2.23345635e-03, 2.71766051e-03, 1.43740850e-03,
          7.06502062e-04, 3.40415584e-03, 2.44345842e-03, 7.12731911e-04,
          -1.33427733e-04, 2.64167727e-04, 1.78428061e-04,
          6.25340384e-04, 1.08135841e-03, -3.62801226e-03,
          3.72046418e-03, -6.90661662e-04, -3.58737446e-03,
          9.69480840e-04, -1.81267911e-03, 2.58453120e-03,
          1.48328103e-03, -9.13338095e-04, -1.14229112e-03,
          -2.36400403e-03, -1.12706318e-03, -1.20675936e-03,
          5.12452796e-03, -2.40923045e-03, -1.34546484e-03,
          2.43983115e-03, 2.40953159e-04, 6.15597004e-04,
          -3.19448579e-03, 2.58887978e-03, -2.97363079e-03,
          -2.34232866e-03, -2.61989445e-03, 4.80124727e-04,
          1.06962463e-04, -1.25012628e-03, -2.16622185e-03,
          2.70351829e-05, 7.20226206e-04, 1.10870251e-03, 1.05182244e-03,
          -1.95759977e-03, 1.13945687e-03, 1.73197838e-03,
          1.02243654e-03, 1.32490892e-03, -1.57223758e-03,
          8.12990242e-04, 4.19927947e-03, -2.35091662e-03,
          1.44509203e-03, -1.79853255e-03, 8.37493717e-05,
          -2.77542812e-03, -2.53535400e-04, 1.75527821e-03,
          -7.05107464e-04, -3.52238677e-03, 1.83608718e-04,
          -1.98317459e-03, 4.88042599e-04, 3.25908069e-03,
          -5.25941560e-03, -3.87598039e-03, 8.43233080e-04,
          -1.05230429e-03, 3.43830977e-03, 4.94173903e-04,
          -1.68262247e-03, 3.17004626e-04, 3.94877838e-03,
          8.18662287e-04, -9.21927684e-04, 7.09178974e-04,
          2.21314724e-04, 1.76790621e-04, 2.80269817e-03, 3.72379646e-03,
          -2.20131874e-03, -3.78766633e-03, -3.82483006e-04,
          -9.94376373e-04, 1.54799654e-03, -1.22422294e-03,
          -8.09276462e-05, 1.40655646e-03, 1.24487130e-03,
          -3.06722766e-04, -1.37906347e-03, 1.43348146e-03,
          8.59675638e-04, 3.16698715e-04, 1.18942512e-03, 1.12963747e-03,
          3.09724780e-03, 1.63895788e-03, 3.85168823e-05, 3.13766510e-03,
          3.06740822e-03, 1.03992666e-03, 6.91183595e-05, 1.29033040e-04,
          2.66205962e-03, 1.95489475e-03, 4.48828796e-04 ]
      - [ 8.52943747e-04, -7.80953851e-05, -2.15900320e-04,
          4.94137232e-04, -6.42211235e-05, -3.90776870e-04,
          6.73337781e-04, 1.91154657e-03, 5.05060307e-04,
          -1.14714589e-04, 1.34004586e-04, 5.65455295e-04,
          2.07260740e-03, 1.37820514e-03, -1.02923799e-03,
          5.72215649e-04, -1.65266378e-04, 1.35965273e-03,
          1.25960575e-03, 1.10947888e-03, 2.59840186e-03, 2.95793917e-03,
          -7.86839344e-04, -6.03292545e-04, 6.17746788e-04,
          5.53670456e-04, 1.62660773e-03, 6.72762515e-04, 1.75089503e-04,
          4.43041499e-05, -7.00528253e-05, 2.12954008e-03,
          -2.27096211e-03, 1.65555498e-03, 8.16726300e-04,
          9.85388993e-04, 2.13708216e-03, 6.96977018e-04,
          -4.81772877e-04, 1.27543753e-03, -6.08138740e-04,
          1.79390097e-03, 4.48660030e-05, 5.87927236e-04,
          -1.40068785e-03, -8.18715722e-04, -7.91520532e-03,
          -1.74351389e-05, -1.12321321e-03, 8.22933449e-04,
          1.90532173e-03, -9.89390071e-04, 8.73900950e-04,
          8.94946861e-04, -1.06925133e-03, -1.08629547e-03,
          9.63318569e-04, 6.43515552e-04, 7.60372670e-04, 6.54780364e-04,
          4.38978692e-04, 5.85721573e-04, -1.41017104e-03,
          5.40557259e-04, -7.10986322e-04, -1.08541490e-03,
          3.46278050e-03, 2.42693536e-03, 4.11450426e-04, 2.61816243e-03,
          8.15915351e-04, 2.40115449e-03, -2.16320460e-03,
          2.05044448e-03, -1.76939182e-03, 2.36381823e-03,
          -1.25248509e-03, -5.75832732e-04, -1.66380510e-03,
          -5.71998535e-04, 4.82324715e-04, -1.29614549e-03,
          -8.30051722e-04, 3.71298520e-05, -2.36733467e-04,
          -1.01785443e-03, -5.70255273e-04, 3.55418073e-04,
          -3.89056542e-04, 8.89131741e-04, 2.81584362e-04,
          -5.81627537e-04, 6.30707887e-04, 1.78558473e-03,
          3.45517386e-04, 1.23000750e-03, 8.20730784e-05, 2.61707604e-03,
          2.27315444e-03, 2.84215994e-03, 2.42318748e-03, 1.70835841e-03,
          9.24062799e-04, 1.43834797e-04, -4.78797883e-04,
          -1.73060340e-03, -1.75656367e-03, 2.98527931e-03,
          6.16375497e-03, 1.78488495e-03, 2.31090165e-03, 2.12562853e-03,
          -4.06475068e-04, -2.92082434e-03, 1.92065269e-03,
          1.06498133e-03, 2.69902265e-03, 5.25541464e-03,
          -1.36212888e-03, 2.97237595e-04, 1.03479237e-04,
          1.74242898e-03, 1.20830035e-03, 4.96242545e-04, 2.53629492e-04,
          1.19281223e-03, 1.91306090e-03, -9.11965675e-04 ]
      - [ 2.39928529e-04, -1.40520930e-03, -2.56534293e-03,
          1.38415350e-03, 8.50076787e-04, 1.70042040e-03, 6.87005639e-04,
          9.47600405e-04, 6.79277946e-05, -5.28206234e-04,
          -5.01932111e-04, 6.03156339e-04, 3.04895540e-04,
          1.60354446e-03, -1.53728470e-03, -6.44791755e-04,
          6.82441634e-04, 1.30283169e-03, 1.04534812e-03, 2.06197426e-03,
          1.11776416e-03, -7.05399507e-05, -2.04584259e-03,
          1.08611945e-03, 2.40916866e-04, 1.17810082e-03,
          -8.28162534e-04, -3.12676915e-04, 2.47741700e-04,
          1.56830156e-05, 9.45663342e-05, 3.20567633e-04,
          -4.72132757e-04, 2.04044045e-03, -1.83843228e-03,
          -1.33591716e-03, 1.70148865e-04, -2.22422750e-05,
          6.23164349e-04, 8.16501095e-04, 7.80503498e-04, 4.76353103e-04,
          8.04716692e-05, 6.09569601e-04, 1.30528153e-03,
          -6.58078643e-04, -1.31425227e-03, 5.15108462e-04,
          8.33248603e-04, 4.21802863e-04, 8.77520768e-04,
          -1.94908978e-04, 1.73255953e-03, 4.10385437e-05,
          -2.05669412e-03, -5.80529799e-04, 1.98473514e-04,
          3.06618429e-04, -3.71289992e-04, -3.32259769e-05,
          -1.40504795e-04, -7.36219517e-05, 4.00146790e-04,
          -4.89146390e-04, -1.15957097e-04, -1.28605322e-03,
          2.77143903e-04, 8.49178294e-04, -5.95447018e-05,
          1.44294434e-04, -1.44957134e-03, 6.76419935e-04,
          2.66291227e-05, 1.13618246e-03, 2.10880674e-03, 1.60732365e-03,
          9.96323070e-04, 3.71933653e-04, -4.37521754e-04,
          -1.03884039e-03, 2.99836884e-05, -7.47602549e-04,
          -2.54696677e-03, -6.95788534e-04, -2.16961162e-05,
          3.23587126e-04, -6.70237234e-04, 1.23260925e-05,
          5.40039793e-04, -4.58701434e-05, 1.40867417e-03,
          1.08808372e-03, 4.69026825e-04, -1.44887981e-05,
          -8.19440756e-04, 3.88800167e-04, -5.07528566e-05,
          4.28737054e-04, 7.44728197e-04, 1.96770811e-03, 2.14540237e-03,
          -1.51626577e-04, -3.08959163e-04, -4.84338525e-04,
          2.71226250e-04, -1.09843642e-03, -8.83360044e-05,
          2.56541371e-03, 1.18267164e-03, 5.33179322e-04, 1.20388309e-03,
          -7.55560119e-04, -1.37487907e-04, 5.37722372e-04,
          -6.80459925e-05, -2.43540882e-04, 3.19987390e-04,
          6.43968175e-04, 4.21560166e-04, 2.45987845e-04,
          -1.36831004e-04, 2.25840718e-03, 1.08883274e-03,
          6.33517571e-04, 4.75027424e-04, 1.27653824e-03,
          -6.86597923e-05, -3.66873719e-04 ]
      - [ -1.11585308e-03, -9.91057721e-04, -1.16978568e-04,
          -1.70357001e-03, 6.27605186e-04, 1.67897029e-03,
          8.91026051e-04, 6.11587253e-04, -2.36929816e-04,
          -8.88436916e-04, -1.39685965e-03, -1.38829683e-03,
          1.25257217e-03, 7.26100639e-04, -6.11344411e-04,
          3.34185141e-04, 2.29647758e-05, -6.04849367e-04,
          1.91533996e-03, 6.54997129e-04, 1.61271496e-03,
          -2.74400081e-04, -4.70103580e-04, 7.57110131e-04,
          2.86134589e-03, 4.80348332e-04, 1.21755083e-03,
          -4.21863515e-04, 2.50345474e-04, 1.03136510e-04,
          2.28687175e-04, 1.58691581e-03, -2.57391110e-03,
          -4.71181789e-04, 4.83194250e-04, -1.49062532e-03,
          -2.09031231e-03, -1.15398876e-03, 4.34766378e-04,
          1.64684327e-03, -4.69285820e-04, -2.02842220e-03,
          -9.85842315e-04, 1.34221232e-03, 1.04211967e-05,
          3.01821041e-04, -1.76234252e-03, -1.98894087e-03,
          -1.03890139e-04, 1.31029100e-03, -1.56071293e-03,
          3.47863301e-04, 9.36604571e-04, -7.22501543e-04,
          -1.12727191e-03, -1.22175552e-04, -5.81169443e-04,
          -1.75690372e-03, -5.93330769e-04, 5.20185858e-04,
          -6.03658787e-04, -4.65285528e-04, -2.24300381e-03,
          9.97284660e-04, 1.72782689e-03, -2.47243163e-03,
          2.21359165e-04, 1.28748617e-03, 3.91722890e-04,
          -2.32376580e-04, 1.54087367e-03, 2.01321999e-03,
          5.65904833e-04, -1.28097238e-03, 1.39798399e-03,
          -6.93927694e-04, -2.29581888e-03, 1.04206242e-03,
          -1.15069351e-03, -1.21643371e-03, -6.69750501e-04,
          -1.24516559e-03, -1.56685920e-03, 1.59704511e-03,
          -1.58144830e-04, -1.82680797e-03, -1.70033379e-03,
          9.75365343e-04, -6.97079464e-04, 1.70550332e-03,
          -1.01593079e-03, 1.45715559e-04, -2.41428032e-03,
          1.97533076e-03, -7.87143479e-04, 4.48497012e-04,
          1.41306443e-03, 9.48508561e-04, -4.46220103e-04,
          -1.50563908e-04, -5.52915793e-04, -1.00647297e-03,
          -2.49052129e-04, -2.69663334e-03, 4.13104193e-04,
          -1.96147733e-03, -3.10506526e-04, 1.60895928e-03,
          2.27634271e-04, -8.27261683e-05, 6.77319127e-04,
          -9.69704182e-04, -4.56441689e-04, -4.57862538e-04,
          6.09072798e-04, 1.21599657e-03, -7.05984945e-04,
          4.92409628e-04, 3.77681252e-04, 3.96146526e-04,
          -1.29165489e-03, 2.46391748e-03, 4.13444504e-04,
          7.66288140e-04, 6.39628852e-04, 1.66519207e-03,
          -1.94336521e-04, -5.14537212e-04 ]
      - [ 4.61934833e-04, -1.38672767e-03, 1.31906080e-03,
          2.59931316e-04, -5.18325141e-05, 9.53795214e-04,
          4.14603128e-04, 1.43818313e-03, 1.47932605e-03, 2.22665863e-03,
          7.05690705e-04, 5.49798249e-04, 3.54371878e-04, 2.48813420e-03,
          -1.60753983e-03, 2.44043531e-05, -3.02250119e-04,
          9.53360926e-04, 1.10567105e-03, 7.32187822e-04, 2.71507236e-03,
          4.54337365e-04, -3.04922898e-04, -3.31978896e-04,
          2.07812246e-03, 1.56687619e-03, -3.60613631e-04,
          -8.15666281e-04, -5.31930185e-04, -7.14764683e-05,
          2.55486957e-04, 1.47385534e-03, -3.39949317e-03,
          -1.16530468e-03, -3.55106662e-04, -2.81456485e-03,
          -7.63257209e-04, 1.41783361e-03, 2.68274546e-03,
          9.08075541e-04, -3.10049392e-04, 1.49444022e-04,
          -1.36398058e-03, -3.11419659e-04, 8.86692549e-04,
          2.62359710e-04, -3.91991949e-03, -8.63276306e-04,
          -7.95313972e-05, 1.66940721e-04, 7.25844468e-04,
          -1.85878889e-03, 1.74124213e-03, 1.20243873e-03,
          -1.81260123e-03, -1.43467030e-03, 1.85127021e-03,
          1.76241956e-04, -2.05364078e-03, -1.30257031e-04,
          -1.92458770e-04, -1.64013437e-03, -1.44581113e-03,
          -2.02100654e-03, -1.79856906e-05, 2.50370638e-03,
          3.37180123e-03, 1.15139237e-05, 1.39777912e-04, 1.83545140e-04,
          1.16912369e-03, 1.97818899e-03, -2.94306688e-03,
          1.65155355e-03, -4.67845472e-03, -2.97190971e-04,
          -1.22183410e-03, 4.02569596e-04, 7.45525293e-04,
          3.33172706e-04, 2.69996002e-04, 6.68398221e-04,
          -8.35412065e-05, 1.24511088e-03, 1.56185834e-03,
          -2.03445833e-03, -2.35469110e-04, 9.68909822e-04,
          2.34726569e-04, 1.91600970e-03, -2.10396061e-03,
          -9.93261929e-04, 1.62795093e-03, 3.20819742e-03,
          5.48939977e-04, 2.14835618e-05, 1.68737781e-03, 1.08542573e-03,
          -1.42561784e-03, -1.87992293e-04, 3.32137948e-04,
          3.17606032e-06, -8.50412354e-04, -5.21159673e-04,
          1.64552312e-03, 1.48910563e-04, -3.46684974e-04,
          6.04450412e-04, 2.13054591e-04, 8.37756670e-04,
          -7.33938999e-04, -2.31516315e-03, 1.23571279e-03,
          1.11350394e-03, 7.70799466e-04, 3.03803663e-05, 2.63825385e-03,
          1.54660875e-03, 7.45895552e-04, -1.18266419e-03,
          3.25273816e-03, 1.85508514e-03, 1.16784580e-03, 4.59784933e-04,
          5.93566045e-04, 1.78976182e-03, 1.47044030e-03,
          -3.07700876e-03 ]
      - [ -1.91810448e-03, -2.85735889e-03, 2.81716953e-03,
          -2.32982123e-03, 2.68468237e-03, 1.03061640e-04,
          -1.53714302e-03, 1.28135795e-03, 1.19457394e-03,
          -2.54032813e-04, -1.97824891e-04, -2.58500199e-03,
          3.59554449e-03, -2.85712839e-03, 1.40329811e-03,
          2.35681632e-03, 1.20551186e-03, 1.33478851e-03, 1.52872730e-04,
          1.85695407e-03, 1.79914676e-03, 1.90225127e-03, 8.27119162e-04,
          -1.30596664e-03, 4.70914459e-03, -7.51557818e-04,
          5.48666983e-04, 1.95764092e-04, -1.47868021e-04,
          -3.17960134e-04, -1.47752988e-03, 1.02721131e-03,
          -6.70864538e-04, -1.18796458e-03, 2.01632292e-03,
          -2.23729480e-03, 2.75331107e-03, -1.86774461e-03,
          -8.87613744e-04, -2.26512342e-03, -2.66115577e-03,
          2.55574286e-03, 7.40135147e-04, -8.14845669e-04,
          8.66477378e-04, -3.83102125e-03, -8.02122173e-04,
          3.88933608e-04, -1.55511301e-03, 2.67247180e-03,
          1.13638432e-03, -3.15231550e-03, 3.88686219e-03,
          2.25670563e-04, -1.13686582e-03, -2.67049042e-03,
          9.99666052e-04, -1.74132758e-04, 2.36803062e-05,
          3.85384425e-04, -5.69026743e-05, -1.06707588e-03,
          -4.34610620e-03, -2.67945634e-05, 1.99557468e-03,
          -9.98920412e-04, 3.40216816e-03, 3.18021659e-04,
          2.63391150e-04, 1.08230370e-03, 8.73541983e-04,
          -2.45450628e-05, -4.11083922e-03, 2.06814823e-03,
          -8.39648768e-04, 1.14834832e-03, -8.88454553e-04,
          8.87581031e-04, -3.35880183e-03, -2.32846636e-04,
          -3.40329017e-04, -2.20841193e-03, -4.65603964e-03,
          2.03167569e-04, 1.33216789e-03, -4.98392060e-03,
          -1.57616392e-04, 1.62731099e-03, -4.05054925e-05,
          1.37502828e-03, 3.70430091e-04, -1.78298901e-03,
          -3.20630352e-04, 1.49657810e-03, -8.59294436e-04,
          6.06456888e-04, -2.53724121e-03, 5.75552345e-04,
          -1.45403726e-03, 1.26278622e-03, 3.22960271e-03,
          -2.25017266e-03, 1.38948055e-03, -9.11600830e-04,
          -2.97484774e-04, -1.13119255e-03, 1.27212272e-03,
          1.64631929e-03, 3.21939308e-03, -7.89376150e-04,
          2.76684586e-04, 1.84374312e-05, -2.45428039e-03,
          -2.98947934e-03, -6.79964782e-04, 1.57344388e-03,
          2.30984972e-03, 1.44442660e-03, -2.09452375e-03,
          -3.17168352e-03, 1.49672688e-03, 1.87326528e-04,
          -3.94388195e-03, -7.82241172e-04, -5.91942153e-05,
          1.19955651e-03, 1.37474365e-03, 6.94370479e-04 ]
      - [ 1.99368666e-03, 2.51731952e-03, -2.09628954e-03,
          1.57864671e-03, 7.26888375e-03, 1.15538447e-03,
          -1.90972278e-04, 7.73555308e-04, -1.64137629e-04,
          -2.81604967e-04, 3.30503308e-03, 1.24725804e-03,
          -1.17443538e-04, -3.23051208e-04, 4.93534899e-04,
          2.52648699e-03, 1.85383856e-03, 1.99792747e-04,
          -1.15580321e-03, -3.01863486e-03, -1.53687643e-03,
          -9.38078505e-04, 1.06118881e-04, 2.55750772e-03,
          3.93459108e-04, -8.55363032e-04, -5.99402119e-04,
          -7.81273178e-04, -3.36699100e-04, -3.25150933e-04,
          -9.50839749e-05, 4.44572477e-04, -2.53433711e-03,
          6.91898691e-04, 2.94677611e-03, -3.13486974e-03,
          1.34685135e-03, -1.54733963e-04, 1.60165771e-03,
          -1.41648308e-03, -3.84492916e-03, -3.14073567e-03,
          5.50160708e-04, -2.67088390e-03, -2.12895940e-03,
          -2.84497137e-03, 3.39997164e-03, -6.11201953e-03,
          2.42577330e-03, 5.17129956e-04, -5.32031665e-03,
          -3.90035822e-03, 1.77634461e-03, -2.10673767e-04,
          3.11822165e-04, 1.49023230e-03, -4.01769532e-04,
          -2.91258865e-03, -3.08807503e-04, -1.81880663e-03,
          -9.72463575e-04, -5.47004282e-04, -7.13393529e-05,
          -6.02990971e-04, -1.98078807e-03, -2.44385703e-03,
          -3.66401416e-03, 9.47222987e-04, -2.44004288e-04,
          -1.97877828e-03, 7.15900271e-04, -2.19800230e-03,
          -2.15917756e-03, -5.81278559e-03, -2.42850231e-03,
          -3.48931039e-03, -9.78264841e-04, -1.14477158e-03,
          -4.34022443e-03, 1.52928624e-04, -5.73305646e-04,
          1.43625788e-04, 2.13604281e-03, 5.86696027e-04, 2.57118815e-03,
          3.09587602e-04, -5.33605889e-05, 2.88314442e-03,
          -1.31335121e-03, 3.05017657e-05, -2.40615522e-03,
          -2.63547711e-03, -1.40513654e-03, -1.50267652e-03,
          -1.83555484e-03, -3.32135125e-03, 2.71656876e-03,
          6.84114988e-04, -7.47620885e-04, 3.63874045e-04,
          6.29518414e-03, -1.64277328e-03, -4.58510360e-03,
          1.52587367e-03, -2.17493530e-03, 1.16679911e-03,
          -9.91110108e-04, -8.03348434e-04, 2.55611166e-03,
          1.22030510e-03, 1.02697313e-03, 4.05864470e-04, 2.11394578e-03,
          1.08388253e-03, -1.83793157e-03, -3.62187647e-03,
          6.34454365e-04, -1.19715254e-03, 3.28590104e-04,
          -5.45753574e-04, 1.48574938e-03, 5.27581316e-04,
          -5.64428803e-04, -1.10794383e-03, -3.00911168e-04,
          -1.24654325e-03, -2.80669844e-03, -8.18380504e-04 ]
      - [ -1.81079871e-04, -5.76772611e-04, 2.68080530e-05,
          9.49092573e-05, 6.24095323e-04, 4.55030007e-04,
          -4.64784011e-04, -8.78691149e-04, -9.80503275e-04,
          -8.57358216e-04, 1.94363849e-04, 8.16274376e-04,
          -4.36778355e-04, -1.26599183e-03, -3.62365885e-04,
          -1.10599713e-03, 3.63761996e-04, -3.88350483e-04,
          -4.00612509e-04, -1.06340542e-03, 5.56078507e-04,
          5.79208776e-04, 3.31182935e-04, -4.40116622e-04,
          -1.45671002e-05, -7.23906036e-04, -6.55027907e-05,
          -1.13036782e-04, 1.01767408e-04, 5.35524086e-05,
          -4.31551707e-05, 6.06147107e-04, 1.61250966e-04,
          -1.84796203e-03, -6.51751528e-04, -8.80893029e-04,
          -2.72715639e-04, 5.84105263e-04, -8.50265147e-04,
          -2.39089224e-03, 4.61373216e-04, -1.13164599e-03,
          1.03835296e-03, -1.71922351e-04, -5.37321030e-05,
          -2.13046704e-04, -5.25947718e-04, -1.11148343e-03,
          -1.17868636e-04, -8.56387545e-04, -1.18989323e-03,
          6.06660207e-04, -1.22853598e-04, 6.77085773e-04,
          -3.70203023e-04, -5.92893164e-04, 1.86777950e-04,
          -2.37975750e-04, 8.60287328e-05, -2.70576071e-04,
          -2.16840184e-04, -2.96829356e-04, -1.25778097e-04,
          4.27906518e-04, 9.51496593e-04, -4.35866154e-04,
          -3.37904406e-04, -6.02955988e-04, 5.42559574e-05,
          5.99797117e-04, -1.70764432e-03, -1.48681400e-03,
          1.07570761e-03, -1.36191852e-03, -4.71464300e-04,
          4.62632626e-04, 8.77256331e-04, -1.19462411e-03,
          -1.27682392e-03, -7.10422522e-04, -5.39679429e-04,
          -1.14517508e-03, -4.84081102e-04, 5.16781409e-04,
          1.27557071e-03, -2.28435523e-03, -1.11834452e-04,
          -1.32002286e-04, 9.10503382e-04, 1.75462570e-04,
          -3.45675304e-04, -1.78018745e-04, -6.10453892e-04,
          -9.78261232e-04, -6.13890239e-04, -1.12442113e-03,
          1.02011603e-03, 8.65810784e-04, 5.06894663e-04, 1.33778143e-03,
          -6.06628018e-05, 6.85802894e-04, -1.46548171e-03,
          1.25178683e-03, -5.21045760e-04, -8.58006475e-04,
          -3.61362065e-04, -1.57824531e-03, 2.34262156e-03,
          4.42355988e-04, -8.84745969e-04, -5.01885952e-04,
          -4.91127430e-05, -1.37980888e-03, -8.20631278e-04,
          -5.38775232e-04, -1.94395753e-03, 9.38935613e-04,
          -6.55178737e-05, 1.54167356e-03, -1.39964279e-04,
          -7.82260089e-04, -3.94874543e-04, 1.00920006e-04,
          1.18642471e-04, -1.67546023e-04, -1.19165736e-04,
          -1.06221368e-03 ]
      - [ 2.38156528e-03, 9.00305284e-04, -8.53875186e-04,
          1.77792826e-04, 3.26571753e-03, 1.84363755e-03,
          -4.63622331e-04, 3.04738613e-04, 2.79334577e-04,
          -1.89163504e-04, -3.19805753e-04, 6.35020668e-04,
          -4.37281444e-04, -1.42403645e-03, -3.68456676e-04,
          1.11967244e-03, -7.59070041e-04, 6.27471658e-04,
          -8.96530517e-04, -7.82082672e-04, 1.58524350e-03,
          -2.26525473e-04, -1.44523440e-03, 5.58944994e-05,
          -1.55444184e-04, -1.21131435e-03, -2.00988186e-04,
          -5.90020536e-05, 1.00721536e-05, -1.85059052e-05,
          -3.64070671e-04, -5.78627980e-04, -2.20525172e-03,
          8.11803795e-04, -6.40316342e-04, -1.66437379e-03,
          2.32537929e-03, -1.42610952e-04, 4.75046516e-04,
          -5.50008379e-04, 3.28667159e-03, -3.72041040e-03,
          1.03653618e-03, -2.35840189e-03, -1.50504382e-03,
          2.12215571e-04, 2.93993414e-03, -4.38977219e-03,
          -1.17769314e-03, -1.82774919e-03, -2.39604386e-03,
          -2.50946498e-03, 3.03800078e-03, -9.61033220e-04,
          -1.83298206e-03, -2.60847947e-03, 4.10544686e-04,
          -6.66106498e-05, -3.38062200e-05, -4.70600877e-04,
          1.00184152e-04, -2.81608547e-04, -1.29641325e-04,
          1.70348692e-04, -9.57892335e-04, -1.96459424e-03,
          -6.70883164e-04, 1.08704099e-03, 1.10820390e-03,
          5.79742133e-04, 2.04053754e-03, 1.07507210e-03,
          -4.82223084e-04, -4.51247580e-03, -5.41894929e-04,
          2.25867509e-04, -1.51288125e-03, -1.63565495e-03,
          -1.31253421e-03, -1.25798839e-03, 1.50921929e-03,
          -1.22773543e-03, 8.17227410e-04, 1.47570937e-03,
          1.47282681e-03, -1.77605811e-03, 2.88988726e-04,
          -1.73507363e-03, -2.31562671e-03, -3.75178002e-04,
          4.69382445e-04, -4.01881960e-04, -3.14720324e-04,
          -1.02566055e-03, -9.72531270e-04, -1.72693445e-03,
          2.36554560e-03, 6.09206509e-05, -8.15841428e-04,
          1.58690847e-03, 2.12932099e-03, 2.32503822e-04,
          -1.79078174e-03, 7.70326995e-04, 1.52800744e-03,
          -9.35562013e-04, -6.63348939e-04, -2.16052239e-03,
          7.01070589e-04, 1.11795962e-04, 1.56053458e-03,
          -1.42155870e-04, 1.39485323e-03, -1.25387538e-04,
          7.76041357e-04, -3.65908141e-04, 2.31391459e-04,
          5.96580910e-04, -1.03817706e-03, 3.31136456e-04,
          7.24381709e-04, 5.45849543e-05, 2.94281926e-04, 4.70181294e-05,
          -5.98088154e-05, 5.12336082e-05, -1.13772962e-03,
          -6.90377608e-04 ]
      - [ -1.22335900e-04, 2.08215322e-03, -4.15014249e-04,
          7.14466805e-05, 1.95829244e-03, 2.21332023e-03,
          -4.77368303e-04, 1.32901201e-04, -2.45194475e-04,
          1.98771548e-03, -8.76374543e-04, 1.10434135e-04,
          -6.79681543e-04, -1.66061474e-03, -8.33237864e-05,
          1.28063455e-03, -5.20245230e-04, 1.70639390e-03,
          -9.61372571e-04, -3.44039727e-04, 1.90135255e-03,
          6.07059301e-05, -2.64411152e-04, 1.54021604e-03,
          -3.81363323e-04, -3.35903745e-03, -7.22323661e-04,
          1.77690512e-04, 1.20202698e-04, 8.04699957e-05, 1.23451697e-04,
          -1.19126169e-03, -1.27264881e-03, -3.24317138e-04,
          -2.64539593e-03, -2.38636439e-03, 1.32156315e-03,
          -1.26853772e-03, 3.56666686e-04, -2.91055127e-04,
          -2.13822094e-03, -2.22334010e-03, -1.14579452e-03,
          -2.65379879e-03, -3.72358743e-04, -8.31384561e-04,
          1.47897669e-03, -3.03462497e-03, -1.07001630e-03,
          -3.55823344e-04, -2.93507450e-03, 7.31307140e-04,
          3.40273324e-03, -1.30438153e-03, -1.29500823e-03,
          2.47189542e-03, 6.62399339e-04, -7.82455027e-05,
          3.31796706e-04, 3.44331056e-04, 2.48088589e-04, 1.09910237e-04,
          5.22368820e-04, -3.05846334e-03, 1.17659371e-03,
          3.78031720e-04, 2.59629777e-03, -2.35928595e-03,
          1.32538727e-03, 1.64965261e-03, 9.44097294e-04, 1.60141301e-03,
          -6.56613265e-04, -7.28579296e-04, 1.15398748e-03,
          -1.35617203e-03, -6.54025353e-04, -3.66273744e-04,
          -9.92341666e-04, -1.27276359e-03, -4.58779919e-04,
          -1.55716285e-03, 1.05962937e-03, 6.99396332e-05,
          4.32415036e-05, -2.29031756e-03, 8.85164249e-04,
          -6.74514857e-04, -3.49607726e-04, -1.11106876e-03,
          -8.63010355e-05, 2.75021710e-04, 5.46957133e-04,
          -7.28341867e-04, -1.04881369e-03, -1.29452907e-03,
          2.24950054e-04, -8.18979679e-05, -2.46281270e-03,
          -1.01443136e-03, 1.53426570e-03, 1.62195298e-04,
          1.77011767e-03, 2.88177445e-03, 9.87306936e-04, 4.60247829e-04,
          -1.55276572e-03, 7.98899797e-04, 1.09802862e-03,
          -1.07402899e-04, -1.07936328e-03, 8.89056944e-04,
          -1.19780493e-03, -7.02012621e-04, -1.18039537e-03,
          -1.22032838e-03, -7.75972730e-04, 9.79370088e-04,
          -1.01050478e-03, -3.24311026e-04, -3.08507617e-04,
          -8.39812099e-04, -7.84123666e-04, -8.02435970e-04,
          -8.92531476e-04, -4.44931648e-04, -1.82348886e-03,
          -2.80266860e-03 ]
      - [ 1.89286203e-03, 2.76129285e-04, 1.08144607e-03,
          -9.30073584e-05, 3.94904258e-04, 3.92999325e-04,
          -6.28815265e-04, -1.13875125e-04, 1.06228763e-04,
          -7.93114014e-04, -8.42481793e-04, -6.79873978e-04,
          -1.55265781e-03, -1.65387616e-03, -3.26828274e-04,
          1.38188509e-04, -1.57981136e-04, -1.12838857e-03,
          -5.22046525e-04, 5.74215490e-04, -1.76162153e-04,
          -1.41352342e-04, -9.66183143e-05, 2.77404470e-04,
          4.20703291e-04, -7.49847211e-04, 1.87187150e-04,
          3.16260208e-04, 1.81661584e-04, -8.67051676e-06,
          1.58027578e-05, 1.83215452e-04, -1.99089199e-03,
          -2.35948624e-04, 4.47617313e-05, -2.23659717e-05,
          -1.33285048e-05, -1.29708846e-04, 9.74597060e-04,
          5.05283242e-04, -1.93386848e-04, -3.56310280e-04,
          1.17713527e-03, 9.48693996e-05, 1.99336602e-04,
          -2.11665785e-04, 3.04535526e-04, -1.51242013e-03,
          -5.18063491e-04, -6.14167133e-04, 4.22402925e-04,
          1.42295111e-03, 9.34265408e-05, -2.96238926e-04,
          7.54794455e-04, 3.45528126e-04, 7.28524683e-05, 7.55825837e-04,
          -3.57938727e-04, 3.11929325e-04, 5.49365184e-04,
          3.50049377e-05, 1.82896212e-04, 3.59973259e-04,
          -5.65120310e-04, -3.26318230e-04, 8.02585448e-04,
          -6.44131738e-04, 1.64744351e-03, -1.17723853e-03,
          -9.61649057e-04, 1.13331364e-03, 2.05522031e-03,
          -4.62013530e-04, -7.88885285e-04, -8.65110953e-04,
          8.62791552e-04, -1.02910539e-03, -2.03939417e-04,
          7.48999242e-04, 2.32547784e-04, 1.00452674e-03, 4.93431231e-04,
          7.76741887e-04, -2.69047712e-04, -2.02492508e-03,
          -7.07081286e-04, -9.08539922e-04, -8.76327103e-04,
          -8.46805109e-04, -1.57662915e-04, -1.23799313e-03,
          -9.47623164e-04, -2.67818337e-04, -4.91923012e-04,
          -4.87857651e-05, 1.13702368e-03, -4.75566863e-04,
          -3.00626762e-05, 2.06195563e-03, 1.42622937e-03,
          2.26200616e-04, -5.26448595e-04, 1.35870287e-04,
          1.06677134e-03, -2.13097097e-04, -2.25960815e-04,
          8.68494972e-04, 7.89982616e-04, -6.87599997e-04,
          -6.54355157e-04, -3.56793462e-04, -2.35237487e-04,
          9.90347908e-05, 3.53839532e-05, 4.18522162e-04,
          -6.31215866e-04, 2.19075118e-05, -6.40223094e-04,
          -4.69266815e-04, 1.00315956e-03, -2.50221172e-04,
          -3.04344925e-04, 4.77839116e-04, -2.17929075e-04,
          -7.00407836e-05, 2.88366718e-04, -7.37269060e-04 ]
      - [ 1.27446046e-03, 2.30593304e-03, -2.07114406e-03,
          -6.46892222e-05, 5.66589320e-03, 1.45515671e-03,
          -1.62099453e-03, 3.26243666e-04, -2.33552628e-03,
          -2.24264897e-03, 8.53328092e-04, 3.58807039e-04,
          1.53150340e-03, -1.83781213e-03, -1.46382640e-03,
          4.00283752e-04, 6.34598255e-04, 1.44713663e-03,
          -1.06899091e-03, -8.84271358e-05, 7.97270841e-05,
          -3.23814544e-04, -3.68940382e-04, 1.10537314e-03,
          1.97725152e-04, -1.37562084e-03, -1.90546925e-04,
          -2.37883563e-04, -9.08274378e-05, -3.05129724e-05,
          -5.84889640e-05, -2.53150047e-05, -3.76480119e-03,
          2.63655442e-03, -7.33403940e-05, -3.44684115e-03,
          -4.74910543e-04, -9.64205246e-05, 1.86914287e-03,
          -1.19301339e-03, -1.12688425e-03, -4.48960299e-03,
          -3.56714660e-03, -1.86516810e-03, -8.30250036e-04,
          3.88812536e-04, 2.67829909e-03, -3.52154160e-03,
          2.71650939e-03, 1.02761970e-03, -2.64292955e-03,
          -4.57331305e-03, 3.43081099e-03, -2.73930538e-03,
          -1.39657781e-03, -8.40479566e-04, -1.28445303e-04,
          -1.87612907e-03, -1.37244788e-04, -1.93251634e-03,
          -6.96399191e-04, -3.06788832e-04, -1.42451781e-05,
          2.42760623e-04, -3.62581434e-03, -1.63523969e-03,
          2.23405473e-03, -2.47630710e-03, 1.73114345e-03,
          -3.42606171e-03, -4.24792233e-04, 7.28118757e-04,
          1.17739267e-03, -3.19182314e-03, -5.60913468e-04,
          -1.37798872e-03, 1.17861363e-03, -2.47719744e-03,
          -1.18351250e-03, -1.14292535e-03, 5.56178333e-04,
          1.53045298e-03, -9.39126010e-04, 6.69713889e-04,
          6.10540761e-03, -2.54781754e-03, 2.07767342e-04,
          2.00618160e-04, -7.71129853e-04, -3.83386709e-04,
          -1.55520043e-03, -2.59455247e-03, -8.13875988e-04,
          -2.50594720e-04, 1.82337273e-04, -2.56661815e-03,
          1.58452464e-03, 4.15562477e-04, -4.98094654e-04,
          1.06814317e-03, 5.08435257e-03, 6.41026418e-04,
          -3.28543037e-03, 4.18575155e-03, -1.83229579e-03,
          1.84520395e-04, -7.54976063e-04, -4.71639622e-04,
          7.77181354e-04, -4.81543742e-04, -5.48984448e-04,
          -2.91978871e-03, 1.90110062e-03, -1.51870918e-04,
          -3.17665981e-04, -1.98101316e-05, -2.89801654e-04,
          1.97144365e-03, -3.12548393e-04, -1.58529170e-03,
          8.92687531e-04, -2.75413564e-04, -1.36519433e-04,
          -2.91351142e-04, -3.10743053e-04, -2.52197351e-04,
          -1.56521960e-03, -5.99645777e-04 ]
      - [ 1.03072496e-03, 1.96286186e-04, -1.06449367e-03,
          -1.81974890e-03, -3.09731375e-04, -6.21270447e-05,
          2.01867719e-04, 1.00155117e-03, -3.38579557e-04,
          3.77968012e-04, -7.76147528e-04, 4.45915881e-04,
          -1.19389355e-04, 1.98619836e-03, -1.77693306e-04,
          5.16291126e-04, -2.62855389e-03, 1.31275493e-03,
          -4.86823643e-04, 1.60877127e-04, 2.09537029e-05,
          4.35816706e-04, -2.06586253e-03, 5.07070363e-05,
          -1.15830346e-03, -2.40842486e-03, 5.12119732e-04,
          2.82097259e-04, 1.89499333e-04, 2.24674208e-04,
          -3.26684065e-04, 1.27243751e-04, -2.12069578e-03,
          1.37924426e-03, 2.30389438e-03, -6.50825677e-04,
          -7.03224505e-04, -3.92101683e-05, 9.02166590e-04,
          1.05637118e-04, -3.20386002e-03, -4.77192982e-04,
          -1.79662486e-03, 1.35795574e-03, -6.93629554e-04,
          -2.56226142e-03, -3.59296170e-03, -6.12338248e-04,
          1.05663855e-03, 3.05018178e-03, -7.09324842e-04,
          -2.42135092e-03, 3.17543466e-03, 6.09996845e-04,
          -3.21664102e-03, -2.59554246e-03, -8.00524431e-04,
          -1.17997057e-03, 6.23850443e-04, 4.95019136e-04,
          1.52089779e-04, 3.36834870e-04, -1.26617518e-03,
          4.31417575e-04, -6.46019587e-04, -2.60899821e-03,
          8.53922626e-04, 2.26461422e-03, -2.59391236e-04,
          1.80216608e-04, -1.55060331e-03, 9.97720053e-04,
          -1.10337569e-03, -3.72545351e-03, -4.62135440e-03,
          -6.11007563e-04, -6.68795314e-04, -8.38874374e-04,
          -3.41239409e-03, -1.30369596e-03, -1.07229767e-04,
          -1.22586533e-03, 1.05228240e-03, -5.97512990e-04,
          2.62854435e-03, -5.74789767e-04, 1.24507945e-03,
          -8.02622759e-04, -1.71526393e-04, -1.87281621e-04,
          1.70432431e-05, -3.95689480e-04, 2.05270015e-04,
          1.66791840e-04, 3.27745394e-04, -1.15330494e-03,
          1.46165301e-04, 1.57285295e-03, 8.51644785e-04, 1.03133870e-03,
          2.07592547e-03, 6.20545994e-04, -3.87393776e-03,
          -4.86143050e-04, -6.67871675e-04, -1.31242489e-03,
          -9.69200511e-04, 1.32957462e-03, 6.22405764e-03,
          1.83977559e-03, 2.05470365e-03, 4.75274894e-04,
          -2.39407015e-03, 3.13415891e-04, -9.14275952e-05,
          -2.56189756e-04, 1.67667004e-03, 3.46194394e-03,
          -1.11977232e-03, 5.69167489e-04, 9.75328323e-04,
          2.00935916e-04, 1.24992250e-04, 3.41949417e-05, 4.48694191e-04,
          3.41635081e-04, -9.56499076e-04, -1.67507806e-03 ]
      - [ 1.32942060e-03, -7.12161855e-05, -3.50803544e-04,
          -7.86372868e-04, 2.29886081e-03, 1.50655315e-03,
          -5.25062263e-04, 1.20928383e-03, 1.23382907e-03,
          -4.21905919e-04, -1.52885541e-03, 1.49887870e-03,
          1.53264985e-03, 8.84294801e-04, -2.50628055e-03,
          -6.53060852e-04, -1.91389397e-03, 9.73736867e-04,
          4.55214875e-04, 1.76115183e-03, 7.39951211e-04, 9.61250975e-04,
          -1.61824015e-03, 4.81142313e-04, 1.03281881e-03,
          -1.60504726e-03, -4.65605757e-04, -2.87301460e-04,
          1.81065654e-04, 3.00811022e-04, 5.40181238e-04, 7.69380422e-04,
          2.99752191e-05, 2.33819801e-03, 5.21992450e-04,
          -2.37377151e-03, -3.39463790e-04, -6.32736832e-04,
          -4.09865635e-04, -7.22513534e-04, 1.21442077e-03,
          1.29827225e-04, -2.56067404e-04, 3.30742972e-04,
          2.04816926e-03, 1.27368444e-03, 2.38699620e-04,
          -1.14509568e-03, 7.50859967e-04, 2.99953361e-04,
          -8.94996396e-04, 1.31464063e-03, 1.05102721e-03,
          -2.79371452e-04, -1.83068495e-03, -7.48901395e-04,
          4.01590049e-04, 3.23606917e-04, -3.27130489e-04,
          1.39242940e-04, 4.77696129e-04, 6.28968701e-05, 2.47545831e-04,
          5.39687753e-04, -8.17541077e-05, -2.07762630e-03,
          2.38655877e-04, -5.78677806e-04, -2.62580463e-04,
          -7.98406487e-04, 1.21523778e-08, -7.95916072e-04,
          1.93047847e-04, 3.05517227e-04, -1.01985841e-03,
          1.41695910e-03, 1.80651387e-03, 7.87657860e-04, 1.07044564e-03,
          3.03462119e-04, 4.75537468e-04, -1.39122584e-03,
          -2.13332794e-04, -3.50707851e-04, 1.48343795e-03,
          -1.05858850e-03, -8.24258372e-04, 7.23492121e-04,
          5.42801863e-04, 6.98558171e-04, 3.30039882e-04, 3.02788103e-04,
          7.56098831e-04, -5.79136889e-04, -2.26377510e-04,
          2.44563325e-05, 1.32085558e-03, 1.98971407e-04, 2.76821578e-04,
          -5.34618273e-04, 1.90732733e-03, -4.05689731e-04,
          -4.21971024e-04, -1.49478277e-04, -1.06127269e-03,
          -9.05599445e-04, -4.84234479e-04, 2.18187561e-04,
          6.56158605e-04, 2.92327721e-04, -5.85809816e-04,
          -1.11630454e-03, -2.14980217e-03, -1.39773055e-03,
          -4.49857507e-05, 3.15600017e-04, 7.87255296e-04,
          -8.95161531e-04, 5.01216506e-04, 8.65212860e-05,
          -1.39985030e-04, 1.07237673e-03, 4.03986458e-04,
          8.49499134e-04, 8.04546406e-04, 2.41632224e-04, 3.35814511e-05,
          8.25089519e-04 ]
      - [ -3.89258988e-04, -1.52266456e-03, -4.79921990e-04,
          -2.11824360e-03, 1.05128100e-03, 5.41419548e-04,
          -8.38395426e-05, 6.59444078e-04, 1.50303042e-03,
          -2.85544200e-03, -3.01657506e-04, 1.75812369e-04,
          -1.04862370e-03, -1.01695769e-03, -1.12595293e-03,
          1.06898493e-04, -2.67634343e-04, -4.70902422e-04,
          2.83891946e-04, -4.66629252e-04, -1.07670191e-03,
          -1.41669216e-03, -1.77970913e-03, 1.72705113e-04,
          1.39023410e-03, 3.21503816e-04, 6.04616187e-04, 1.95485132e-04,
          1.92840671e-04, -2.28546796e-05, -6.55300450e-04,
          -1.37966627e-03, 2.38092849e-04, -1.22459605e-03,
          -2.01568054e-03, -2.17671087e-03, -1.13991078e-03,
          -3.20218358e-04, -1.22614263e-03, -2.28720513e-04,
          -2.83251284e-04, -3.07069952e-03, -2.07885238e-03,
          -1.85045041e-03, 1.10585976e-03, -2.10220879e-03,
          1.37648240e-04, -5.42740431e-03, -1.70475012e-03,
          1.42185879e-03, -7.80722359e-04, -1.60783692e-03,
          1.57174096e-03, -1.74582540e-03, -1.49453629e-03,
          -5.93722973e-04, -1.33323751e-03, -1.95885287e-03,
          -1.23265112e-04, 5.85352536e-04, 9.31091636e-05,
          -7.02861638e-04, -9.49311245e-04, -6.49725844e-04,
          3.29948612e-04, -3.35500133e-03, 1.31063641e-03,
          -1.46570883e-03, -1.00986537e-04, -9.70839814e-04,
          -2.60348571e-03, -2.51375313e-04, -1.18983805e-03,
          -3.32358130e-03, 7.24609767e-04, -4.01056046e-03,
          -4.67363978e-04, -8.92455399e-04, -1.08778197e-03,
          -2.72406288e-03, 7.60055846e-04, -8.95935053e-04,
          7.52058055e-04, 8.84303066e-04, -1.78491784e-04,
          -2.48848554e-03, 2.63371738e-04, -1.62928610e-03,
          -1.85151747e-03, -1.30135461e-03, -1.51235238e-03,
          -9.79996752e-04, -1.37699500e-03, -1.63229031e-03,
          -7.05132261e-04, -2.14137929e-03, 6.53388037e-04,
          -8.08808196e-04, 5.40122215e-04, 9.18445003e-04,
          8.24470713e-04, 1.68646465e-03, -1.42230664e-03,
          9.62047954e-04, -1.18525978e-03, -2.88679381e-03,
          -1.01070944e-03, 8.40018096e-04, 2.01529893e-03,
          6.46547123e-04, -3.40227270e-04, 4.52691223e-04,
          1.91401574e-04, -2.64327065e-03, 4.70270606e-04,
          8.44867434e-04, -2.41195579e-04, 1.12013880e-03,
          -8.54457903e-04, -2.52198835e-04, 2.87370713e-05,
          5.53410267e-04, 4.82316973e-04, 1.13848434e-03, 5.34666106e-05,
          -1.17346435e-03, -1.33548921e-03, -1.44662999e-03 ]
      - [ 2.81002885e-03, -1.61436002e-03, -1.18623202e-05,
          1.46711792e-03, 2.32896814e-03, 4.46663180e-04,
          -9.22149280e-04, 5.90453041e-04, 2.57616653e-03,
          -4.28938598e-04, -2.33564308e-04, 8.25608004e-05,
          1.84255431e-03, 1.15886808e-03, -1.85179699e-03,
          -5.32872800e-04, -1.43148180e-03, 1.03522092e-03,
          -4.78307455e-04, -4.78820468e-04, -5.68894553e-04,
          1.64091252e-04, 1.35599967e-05, -1.84841367e-04,
          8.63528810e-04, -4.76035522e-04, -7.78917340e-04,
          -3.06282047e-04, -1.11032095e-05, 1.16073737e-04,
          1.06855528e-04, 2.41333255e-04, -2.59140623e-03,
          -1.95320812e-03, -1.04686548e-03, -1.29826448e-03,
          -1.57298509e-03, 2.86267721e-03, 1.55869580e-03,
          -7.30299391e-04, -1.96734280e-03, -3.26559064e-04,
          -1.25702441e-04, -1.30520889e-03, -1.49158167e-03,
          -9.66152351e-04, -1.94692670e-03, -1.04067300e-03,
          -1.61565933e-03, 6.73988980e-05, -1.74699503e-03,
          -3.16456100e-03, 2.25200783e-03, -5.64947899e-04,
          -1.78758800e-03, -1.54644682e-03, 3.76006865e-05,
          -3.63345578e-04, -1.74185750e-03, -4.13771195e-05,
          1.86636593e-04, -3.40263156e-04, -3.79563076e-04,
          -1.05965987e-03, -1.07553112e-03, 1.05431704e-04,
          1.17471255e-03, -9.46457789e-04, -3.68989890e-06,
          4.01195313e-04, -8.43156977e-06, 6.86601910e-04,
          -1.14689302e-03, -3.59738269e-03, -3.27782519e-03,
          -1.78764807e-03, -2.34113960e-03, -1.57640048e-03,
          2.57744716e-04, -1.71307276e-03, 2.34354171e-03,
          -5.19181660e-04, 8.69218144e-04, 1.63783249e-03,
          2.36790068e-03, -2.59617856e-03, -1.23240903e-03,
          7.76935340e-05, -1.41322438e-03, 1.92439897e-04,
          -1.96719728e-03, -8.76956212e-04, 2.66413670e-04,
          -9.47626468e-05, -3.59214959e-04, -2.16962246e-04,
          1.40235981e-03, 4.85793542e-04, -7.69846432e-04,
          1.67549727e-03, 1.06604479e-04, 3.90185771e-04, 6.16266989e-05,
          7.36893504e-04, 7.72510073e-04, 2.33253348e-04,
          -5.16776527e-05, -7.39948417e-04, 9.73857823e-04,
          7.43149372e-04, -8.79256579e-04, -1.54166541e-03,
          6.38443336e-04, 8.52991594e-04, -1.14497969e-04,
          -5.85060276e-04, 8.70230026e-04, 1.08766858e-03,
          1.95388013e-04, -1.14433456e-03, 4.02647653e-04,
          -3.59726837e-04, -1.18424083e-04, 7.18857191e-05,
          3.05457186e-04, -2.94890226e-04, -1.05024385e-03,
          -2.03752145e-03 ]
      - [ 2.26705786e-04, -1.55485573e-03, 6.25714019e-04,
          -3.80425318e-03, 2.82461802e-03, -2.96058697e-05,
          -3.77919525e-03, -7.66767072e-04, -1.24336989e-03,
          -2.68299202e-03, -1.10151467e-03, 1.60466283e-04,
          1.59306440e-03, -5.21694450e-03, 2.85425456e-04,
          2.30797543e-03, -1.67916773e-03, 1.53664523e-03,
          -2.40325974e-03, -2.53071601e-04, 7.07406376e-04,
          3.02007800e-04, -6.26516354e-04, -2.92868819e-03,
          1.06821139e-03, -2.33994122e-03, -1.13363727e-03,
          -3.72786089e-05, 1.93598666e-04, -3.47438727e-05,
          -7.03519094e-04, -3.86712549e-04, 7.58410722e-04,
          -2.53752409e-03, 7.67725578e-06, -2.55437405e-03,
          3.55639169e-03, -8.40339781e-05, -1.44983013e-03,
          -4.02790913e-03, -2.53239973e-03, -8.24425544e-04,
          -1.40159507e-03, -1.40462373e-03, 1.13487151e-03,
          -4.30468423e-03, -1.08500791e-03, -2.19082925e-03,
          -1.35013237e-04, 4.57157643e-04, -2.95651262e-03,
          -3.37785669e-03, 4.75540105e-03, -9.66942345e-04,
          -4.54060268e-03, -2.83730659e-03, 7.22448225e-04,
          -2.97014718e-03, -5.86300099e-04, -2.45038973e-04,
          6.14253440e-05, -8.14567262e-04, -2.25811685e-03,
          -1.40285571e-04, -7.89701822e-04, -3.31798103e-03,
          2.44994671e-03, 1.43405376e-03, 2.07547494e-03,
          -6.85680774e-04, -2.63168069e-04, -4.46756929e-03,
          -4.49305540e-03, 9.75504168e-04, -2.20987806e-03,
          -2.08865176e-03, 8.52966448e-04, -7.16376293e-04,
          -3.24485078e-03, 4.26471408e-04, -1.84676913e-03,
          -1.25414203e-03, -4.21814434e-03, 1.64574082e-03,
          4.45966562e-03, -6.21993653e-03, 3.33662116e-04,
          -5.66297153e-04, 9.24689812e-04, -2.74438557e-04,
          -1.40617206e-03, -2.04502791e-03, -8.63980793e-04,
          -8.16007610e-04, -1.50419190e-03, -1.21621683e-03,
          -6.97015144e-04, -8.89282383e-04, -1.97030208e-03,
          -1.46293011e-03, 2.22411356e-03, -4.17878665e-03,
          -1.02457963e-03, -2.98252748e-03, -3.57562420e-03,
          -3.80237267e-04, -1.18837575e-03, -6.25483866e-04,
          4.72279685e-03, -3.60212987e-04, -1.29570381e-03,
          2.08073575e-03, -3.83376051e-03, -1.03684107e-03,
          -4.10814863e-03, 9.18017118e-04, 2.86640879e-03,
          3.78313533e-04, -7.00326869e-04, -1.58717030e-05,
          1.49330590e-04, -1.10454671e-03, -4.84620407e-03,
          -3.94759409e-04, -1.41477038e-04, -6.61971979e-04,
          -1.44354207e-03, -1.84981967e-03 ]
      - [ -3.23960604e-03, -1.70086825e-03, 1.24605361e-03,
          1.19033444e-03, -4.92471363e-03, 4.06360894e-04,
          5.87060931e-04, 2.67095777e-04, -1.70911814e-03,
          -1.38556387e-03, -1.70370704e-03, -3.09606153e-03,
          -3.41221876e-03, 5.28647215e-04, -5.02886076e-04,
          -1.55116129e-03, 4.92515625e-04, -3.17689235e-04,
          -4.37257957e-04, -7.95530446e-04, -1.44356780e-03,
          2.35749898e-03, 6.06965623e-04, -3.40092042e-03,
          -1.55539229e-03, -1.39005983e-03, -5.30765021e-07,
          6.60742691e-04, 1.30787739e-04, 1.69684863e-04,
          -4.31322580e-04, -1.55512337e-03, 1.84594572e-03,
          -2.51237163e-03, -1.12832570e-03, 1.47182448e-03,
          -3.40859243e-03, -1.06841000e-03, -8.26945587e-04,
          3.89348203e-03, 4.38004546e-03, 3.29728762e-04, 1.98837928e-03,
          -2.14470131e-03, 2.49841390e-03, 2.12113210e-03,
          -6.26185210e-04, -3.72587616e-04, 7.48225546e-04,
          5.24162373e-04, 2.86964048e-03, 2.52303598e-03,
          -8.12926592e-05, 6.54160336e-04, -3.99618270e-03,
          -3.90058849e-03, 1.18732650e-03, 3.13744671e-03,
          4.83476266e-04, -3.04029003e-04, 2.53263745e-04,
          1.25368335e-03, -6.54043615e-05, -6.71379443e-04,
          -1.18434930e-03, -1.06547179e-03, -7.92509119e-04,
          -2.48586689e-03, -1.06274697e-03, -1.27635687e-03,
          -2.19849893e-03, -3.89650464e-04, 1.81624036e-05,
          4.18808823e-03, 2.29062792e-03, 5.05600707e-04, 1.86843390e-03,
          5.63432986e-04, 1.82230095e-03, 1.09841139e-03,
          -1.21831428e-03, -8.22905917e-04, -5.88620780e-04,
          -4.83694370e-04, -5.46772644e-05, 3.75238806e-03,
          9.57740471e-04, 1.85744546e-03, 4.50967316e-04,
          -7.43376324e-04, -1.34727234e-04, 2.43299262e-04,
          -1.56273216e-03, -1.15497306e-03, 2.01346775e-04,
          9.23031883e-04, -9.35390242e-04, -1.68860401e-03,
          -7.31532287e-04, -1.23006257e-03, -5.93815325e-03,
          -1.35067315e-03, -2.66294577e-04, 1.31224833e-05,
          7.12749606e-05, -1.96300214e-03, 1.17324747e-03,
          -9.67241183e-04, -3.33241909e-03, -6.00786298e-04,
          -9.13288211e-04, -1.58299005e-03, -2.33376748e-03,
          4.61537456e-05, 2.76506296e-03, 3.48659465e-03,
          -4.48684581e-03, 1.04923872e-03, -2.72726128e-03,
          -5.86100563e-04, -2.19080574e-03, -4.45622747e-04,
          6.44167536e-04, 6.60562946e-04, -9.85048828e-04,
          -9.26475157e-04, -3.38917162e-04, -1.33260956e-03 ]
      - [ -1.34287809e-04, -1.62885699e-04, 1.38380227e-03,
          -7.46559876e-04, -1.26850253e-04, -2.60815199e-04,
          1.58701150e-04, 3.86997708e-04, 2.18855203e-04, 1.11629517e-04,
          1.68179497e-04, -5.18616696e-04, -2.40552399e-04,
          -6.27736561e-04, -4.37894603e-04, -3.31997202e-04,
          4.81461233e-04, 2.90477998e-04, -6.86204061e-04,
          4.27284715e-04, 1.31400011e-04, 2.71860947e-04,
          -6.19612576e-04, -4.21180390e-04, 3.42845131e-04,
          -2.42549693e-04, 3.80625163e-04, 2.53518869e-04,
          2.02985902e-04, 1.13512819e-04, -3.10207746e-04,
          -2.62667192e-04, 7.10324457e-05, 5.91901247e-04,
          4.66035941e-04, 1.21091737e-03, 8.28270859e-04,
          -6.87449996e-04, -5.49577293e-04, 6.38312136e-04,
          -1.90177860e-04, -1.19629673e-04, 4.79359442e-04,
          -5.47003292e-04, -1.50964095e-03, 1.45390537e-03,
          1.24502840e-04, 1.19190209e-03, -4.45105805e-04,
          -7.79349590e-04, 2.26670905e-04, 7.70356783e-05,
          -9.28202877e-04, 2.25440002e-04, -3.56906065e-04,
          -1.04114355e-03, -2.90285854e-04, 3.62920255e-04,
          8.00106092e-04, 8.72248638e-05, 1.08717044e-03, 9.82543337e-04,
          1.14173687e-04, -4.38079500e-04, 6.54989039e-04,
          1.04217819e-04, 1.42450060e-03, -2.30437043e-04,
          6.09214243e-04, 1.28364365e-03, -1.75245921e-04,
          1.71230210e-03, 5.00335358e-04, 1.79779564e-03, 1.57748058e-04,
          7.67395424e-04, -1.44864386e-03, 2.11598701e-04,
          4.81811672e-04, -1.56493465e-04, 3.52776697e-04,
          2.95428967e-04, -6.96407456e-04, -4.31177068e-06,
          -4.19203308e-04, -1.53903617e-04, -4.55324946e-04,
          -1.11223885e-03, -3.74990632e-04, -3.26775989e-05,
          1.19915069e-03, 3.69033980e-04, 2.02559007e-04,
          -1.84566583e-04, 1.89399016e-05, -1.11737572e-04,
          3.69997215e-05, 3.57880781e-04, -3.30193347e-04,
          -5.43963804e-04, -3.41666309e-04, 7.74023298e-04,
          7.42993609e-04, 5.86263952e-04, -5.34815132e-04,
          -7.12794950e-04, 3.09465868e-05, -1.26321043e-04,
          2.79726257e-04, -2.29409648e-04, -5.03985968e-04,
          7.91499217e-04, -1.45914019e-04, -6.60839665e-04,
          5.54749044e-04, 7.61942065e-04, 3.50146118e-04, 4.25752951e-04,
          2.83339148e-04, 5.03437332e-05, -5.51528181e-04,
          -1.72893444e-04, 7.20929456e-05, 6.55476106e-05,
          8.83081157e-05, 3.62866740e-05, 8.00024951e-04, 1.21631683e-03 ]
      - [ -3.16741352e-04, -3.98592587e-04, -9.51669062e-04,
          -6.24134846e-04, -3.07851937e-03, -5.18747780e-04,
          2.33183891e-04, 9.57068754e-04, -2.30341172e-03,
          6.73073577e-04, -1.79479888e-03, -2.12549488e-03,
          -6.21597341e-04, 4.51551168e-04, -1.02466240e-03,
          -6.04177010e-04, -1.72934277e-04, 4.73674125e-04,
          -1.81192334e-03, 2.54571042e-03, 3.18274763e-03,
          2.26273038e-03, -2.35992577e-03, -1.94673694e-03,
          -1.88979530e-03, -7.56937661e-04, 9.43176099e-04,
          1.56754977e-03, 6.45994849e-04, 3.86026921e-04, 2.90203479e-05,
          -6.24750275e-04, 7.85111275e-04, -3.13144922e-03,
          -2.12153350e-03, 4.08699794e-04, -1.56799494e-03,
          -7.53908767e-04, -7.74701766e-04, 2.21846672e-03,
          -3.24800349e-04, -1.79053424e-03, 1.36927259e-03,
          -7.28886342e-04, 8.87831266e-04, 4.85547993e-04,
          -1.33712240e-03, -8.70720309e-04, 1.07960869e-03,
          7.85627053e-05, 1.54177993e-04, 1.13030768e-03, 1.01793477e-04,
          -2.86756753e-04, -1.09420437e-03, -3.01440858e-04,
          -1.92267436e-03, 1.26557692e-03, 9.85185761e-05,
          2.05586804e-03, 1.29440520e-03, 1.99691451e-04, 6.88971311e-04,
          -2.73880525e-03, 2.15433282e-03, -1.17658952e-03,
          3.62879684e-04, -3.78788507e-04, 3.55487486e-04,
          -3.07502283e-04, -2.27604713e-03, 6.10833708e-03,
          -3.43276450e-04, -7.33693712e-04, 2.09534029e-03,
          1.38599228e-03, 1.34519453e-03, -2.22541811e-03,
          1.40340207e-03, -6.98134885e-04, 2.62654619e-04,
          -8.60419459e-05, 6.61705737e-04, 1.51083991e-03,
          -3.37190949e-03, -6.34162978e-04, 1.65313529e-03,
          2.12288956e-04, 1.23474703e-04, -5.36835985e-04,
          -1.34125657e-04, 1.60627021e-03, -1.69204213e-04,
          -2.01488938e-03, -8.18853732e-04, -1.64832198e-03,
          -1.54197274e-03, -2.60681473e-03, -1.84028584e-03,
          -4.68520302e-04, -2.08800845e-03, -1.34261965e-03,
          6.31628151e-04, 5.61194320e-04, -7.97302800e-06,
          -7.11813162e-04, 1.04689819e-03, 9.77558200e-04,
          -1.06418307e-03, -9.90551896e-04, -1.81500381e-03,
          -1.20552513e-03, -2.75454368e-04, -1.83189666e-04,
          9.16753022e-04, 7.72323518e-04, -2.44938512e-03,
          -1.31260359e-03, -1.49367726e-03, -1.35874888e-03,
          6.09066337e-04, -2.10906932e-04, 1.35377180e-04,
          -1.83125190e-03, -1.06959965e-03, -3.33740551e-04,
          5.66188362e-04, -2.65290175e-04 ]
      - [ -5.30270918e-04, -4.50034277e-04, 2.38087657e-03,
          2.10845401e-03, -1.29529333e-03, 8.74537800e-05,
          3.45057138e-04, 4.89488128e-04, 1.09089632e-03,
          -7.83962256e-04, 1.12587668e-03, -1.90602744e-03,
          2.63098918e-04, -1.94776672e-04, -3.08090675e-04,
          -4.53321700e-04, 1.57589465e-03, 6.04389817e-04,
          -8.18208035e-04, 2.04848661e-03, 1.14728417e-03,
          2.72068777e-04, 1.63634366e-04, 3.71318107e-04, 8.79500294e-04,
          1.92524993e-03, 6.64459192e-04, 5.98903571e-04, 2.60003668e-04,
          2.94586607e-05, 0., 1.93124841e-04, 2.94314814e-03,
          9.56358272e-04, 8.19530862e-04, 1.78373896e-03,
          -2.37664062e-04, -4.48677456e-04, 3.24042514e-03,
          2.26817583e-03, 6.18756458e-04, -2.36813517e-04,
          2.40506581e-03, -6.45491702e-04, -2.09872937e-03,
          1.76122889e-03, 3.48025089e-04, 1.45739864e-03, 8.35483312e-04,
          -1.35035068e-03, 3.26915458e-03, 9.85150575e-04,
          -3.34660639e-04, 1.25896221e-03, 9.02458327e-04,
          1.40714296e-03, 5.03954885e-04, 5.64112212e-04, 4.35826892e-04,
          1.12309901e-03, 2.04429566e-03, 1.40780676e-03, 8.19873239e-04,
          9.09717695e-04, 1.22313772e-03, 8.81499145e-04,
          -8.26370029e-04, -1.00973796e-03, -3.56906879e-04,
          4.09224117e-03, -9.58412187e-04, 3.24546220e-03,
          3.44203727e-04, 2.40334729e-03, 1.89240195e-03,
          -8.99094797e-04, -1.58855063e-03, 8.27800599e-04,
